{"learner":{"attributes":{"scikit_learn":"{\"_estimator_type\": \"regressor\"}"},"feature_names":[],"feature_types":[],"gradient_booster":{"model":{"gbtree_model_param":{"num_parallel_tree":"1","num_trees":"100"},"iteration_indptr":[0,1,2,3,4,5,6,7,8,9,10,11,12,13,14,15,16,17,18,19,20,21,22,23,24,25,26,27,28,29,30,31,32,33,34,35,36,37,38,39,40,41,42,43,44,45,46,47,48,49,50,51,52,53,54,55,56,57,58,59,60,61,62,63,64,65,66,67,68,69,70,71,72,73,74,75,76,77,78,79,80,81,82,83,84,85,86,87,88,89,90,91,92,93,94,95,96,97,98,99,100],"tree_info":[0,0,0,0,0,0,0,0,0,0,0,0,0,0,0,0,0,0,0,0,0,0,0,0,0,0,0,0,0,0,0,0,0,0,0,0,0,0,0,0,0,0,0,0,0,0,0,0,0,0,0,0,0,0,0,0,0,0,0,0,0,0,0,0,0,0,0,0,0,0,0,0,0,0,0,0,0,0,0,0,0,0,0,0,0,0,0,0,0,0,0,0,0,0,0,0,0,0,0,0],"trees":[{"base_weights":[-1.10039345E-7,-4.560255E-1,1.2022487E0,-7.458305E-1,1.6684124E-2,1.8423606E-1,5.3555363E-1,-2.7620214E-1,-1.4060706E-1,-9.159406E-2,1.4022799E-1,-4.166845E-2,-2.139479E-2,9.221042E-3,4.6793662E-2,-8.705283E-3,2.2104979E-4],"categories":[],"categories_nodes":[],"categories_segments":[],"categories_sizes":[],"default_left":[0,0,0,0,0,0,0,0,0,0,0,0,0,0,0,0,0],"id":0,"left_children":[1,3,5,7,9,-1,-1,-1,-1,11,13,-1,15,-1,-1,-1,-1],"loss_changes":[2.1930239E1,3.9852595E0,2.674902E0,4.4069862E-1,1.7336933E-1,0E0,0E0,0E0,0E0,2.0271733E-2,5.553201E-3,0E0,6.962025E-4,0E0,0E0,0E0,0E0],"parents":[2147483647,0,0,1,1,2,2,3,3,4,4,9,9,10,10,12,12],"right_children":[2,4,6,8,10,-1,-1,-1,-1,12,14,-1,16,-1,-1,-1,-1],"split_conditions":[4.28041E-1,-2.9220513E-1,1.5684308E0,-6.523282E-1,6.791795E-2,1.8423606E-1,5.3555363E-1,-2.7620214E-1,-1.4060706E-1,-5.2123077E-2,-3.3825506E-2,-4.166845E-2,7.897436E-3,9.221042E-3,4.6793662E-2,-8.705283E-3,2.2104979E-4],"split_indices":[4,4,4,4,4,0,0,0,0,4,0,0,4,0,0,0,0],"split_type":[0,0,0,0,0,0,0,0,0,0,0,0,0,0,0,0,0],"sum_hessian":[3.8E1,2.8E1,1E1,1.7E1,1.1E1,6E0,4E0,9E0,8E0,6E0,5E0,3E0,3E0,1E0,4E0,2E0,1E0],"tree_param":{"num_deleted":"0","num_feature":"6","num_nodes":"17","size_leaf_vector":"1"}},{"base_weights":[7.918987E-3,-2.7176723E-1,1.125674E0,-5.284805E-1,9.6041374E-2,1.2844752E-1,3.8604584E-1,-1.9769557E-1,-9.307644E-2,-3.140756E-2,1.9555402E-1,-5.4671623E-2,1.783506E-2,2.1935964E-2,6.725363E-2,-1.4731408E-3,-1.9765288E-2,7.83788E-3,1.8789769E-4],"categories":[],"categories_nodes":[],"categories_segments":[],"categories_sizes":[],"default_left":[0,0,0,0,0,0,0,0,0,0,0,0,0,0,0,0,0,0,0],"id":1,"left_children":[1,3,5,7,9,-1,-1,-1,-1,11,13,15,17,-1,-1,-1,-1,-1,-1],"loss_changes":[1.2498126E1,3.0722396E0,3.482504E-1,3.3665705E-1,1.8370081E-1,0E0,0E0,0E0,0E0,8.994154E-3,1.1645228E-2,2.4662549E-3,4.116798E-4,0E0,0E0,0E0,0E0,0E0,0E0],"parents":[2147483647,0,0,1,1,2,2,3,3,4,4,9,9,10,10,11,11,12,12],"right_children":[2,4,6,8,10,-1,-1,-1,-1,12,14,16,18,-1,-1,-1,-1,-1,-1],"split_conditions":[7.281436E-1,-1.721641E-1,1.1482872E0,-5.923077E-1,1.2793846E-1,1.2844752E-1,3.8604584E-1,-1.9769557E-1,-9.307644E-2,7.897436E-3,2.4797948E-1,-8.676694E-1,-3.3825506E-2,2.1935964E-2,6.725363E-2,-1.4731408E-3,-1.9765288E-2,7.83788E-3,1.8789769E-4],"split_indices":[4,4,4,4,4,0,0,0,0,4,4,2,0,0,0,0,0,0,0],"split_type":[0,0,0,0,0,0,0,0,0,0,0,0,0,0,0,0,0,0,0],"sum_hessian":[3.8E1,3.1E1,7E0,1.8E1,1.3E1,2E0,5E0,1E1,8E0,6E0,7E0,4E0,2E0,2E0,5E0,1E0,3E0,1E0,1E0],"tree_param":{"num_deleted":"0","num_feature":"6","num_nodes":"19","size_leaf_vector":"1"}},{"base_weights":[1.3227885E-2,-2.2974491E-1,7.408235E-1,-4.135846E-1,9.899335E-3,1.1865487E-1,3.4797162E-1,-1.5490097E-1,-7.9463646E-2,-6.251855E-2,9.1248445E-2,-2.7168583E-2,-1.1834681E-2,6.662214E-3,2.971622E-2,-6.008363E-3,-2.4276574E-3,-1.2521625E-3,1.5971661E-4],"categories":[],"categories_nodes":[],"categories_segments":[],"categories_sizes":[],"default_left":[0,0,0,0,0,0,0,0,0,0,0,0,0,0,0,0,0,0,0],"id":2,"left_children":[1,3,5,7,9,-1,-1,-1,-1,11,13,-1,15,-1,-1,-1,17,-1,-1],"loss_changes":[7.064852E0,1.3257779E0,9.883585E-1,1.2299013E-1,8.818055E-2,0E0,0E0,0E0,0E0,1.0299005E-2,1.5726238E-3,0E0,2.5967346E-4,0E0,0E0,0E0,1.7728777E-5,0E0,0E0],"parents":[2147483647,0,0,1,1,2,2,3,3,4,4,9,9,10,10,12,12,16,16],"right_children":[2,4,6,8,10,-1,-1,-1,-1,12,14,-1,16,-1,-1,-1,18,-1,-1],"split_conditions":[5.4808205E-1,-4.1224614E-1,2.3001444E0,-7.723692E-1,6.791795E-2,1.1865487E-1,3.4797162E-1,-1.5490097E-1,-7.9463646E-2,-5.2123077E-2,1.2793846E-1,-2.7168583E-2,-3.3825506E-2,6.662214E-3,2.971622E-2,-6.008363E-3,-8.676694E-1,-1.2521625E-3,1.5971661E-4],"split_indices":[4,4,0,4,4,0,0,0,0,4,4,0,0,0,0,0,2,0,0],"split_type":[0,0,0,0,0,0,0,0,0,0,0,0,0,0,0,0,0,0,0],"sum_hessian":[3.8E1,2.9E1,9E0,1.6E1,1.3E1,6E0,3E0,8E0,8E0,7E0,6E0,4E0,3E0,1E0,5E0,1E0,2E0,1E0,1E0],"tree_param":{"num_deleted":"0","num_feature":"6","num_nodes":"19","size_leaf_vector":"1"}},{"base_weights":[1.5268983E-2,-1.4700755E-1,6.624665E-1,-3.032954E-1,2.823627E-2,1.02241546E-1,2.6967797E-1,-1.16928525E-1,-6.1137844E-2,-4.804668E-2,9.290597E-2,-2.3565853E-2,-1.4032411E-2,1.1535591E-2,3.4117296E-2,-2.0635128E-3,-6.397152E-3,-1.0643364E-3,1.3575554E-4],"categories":[],"categories_nodes":[],"categories_segments":[],"categories_sizes":[],"default_left":[0,0,0,0,0,0,0,0,0,0,0,0,0,0,0,0,0,0,0],"id":3,"left_children":[1,3,5,7,9,-1,-1,-1,-1,11,13,-1,15,-1,-1,17,-1,-1,-1],"loss_changes":[4.1933613E0,8.849954E-1,3.0212164E-1,6.683099E-2,8.3394945E-2,0E0,0E0,0E0,0E0,7.198872E-3,5.829856E-3,0E0,3.923498E-4,0E0,0E0,1.2808884E-5,0E0,0E0,0E0],"parents":[2147483647,0,0,1,1,2,2,3,3,4,4,9,9,10,10,12,12,15,15],"right_children":[2,4,6,8,10,-1,-1,-1,-1,12,14,-1,16,-1,-1,18,-1,-1,-1],"split_conditions":[7.281436E-1,-4.1224614E-1,2.3001444E0,-9.524307E-1,6.791795E-2,1.02241546E-1,2.6967797E-1,-1.16928525E-1,-6.1137844E-2,-1.1214359E-1,2.4797948E-1,-2.3565853E-2,-1.6142686E-1,1.1535591E-2,3.4117296E-2,-8.676694E-1,-6.397152E-3,-1.0643364E-3,1.3575554E-4],"split_indices":[4,4,0,4,4,0,0,0,0,4,4,0,2,0,0,2,0,0,0],"split_type":[0,0,0,0,0,0,0,0,0,0,0,0,0,0,0,0,0,0,0],"sum_hessian":[3.8E1,3.1E1,7E0,1.6E1,1.5E1,4E0,3E0,7E0,9E0,7E0,8E0,3E0,4E0,3E0,5E0,2E0,2E0,1E0,1E0],"tree_param":{"num_deleted":"0","num_feature":"6","num_nodes":"19","size_leaf_vector":"1"}},{"base_weights":[1.6037397E-2,-9.904182E-2,5.562627E-1,-2.3991993E-1,1.7390465E-2,8.303746E-2,2.0900045E-1,-8.4272794E-2,-4.5883514E-2,-4.884355E-2,8.1885435E-2,-2.159983E-2,-1.1287784E-2,1.1519337E-2,3.530806E-2,-1.753966E-3,-5.1177023E-3,-9.0469123E-4,1.1540652E-4],"categories":[],"categories_nodes":[],"categories_segments":[],"categories_sizes":[],"default_left":[0,0,0,0,0,0,0,0,0,0,0,0,0,0,0,0,0,0,0],"id":4,"left_children":[1,3,5,7,9,-1,-1,-1,-1,11,13,-1,15,-1,-1,17,-1,-1,-1],"loss_changes":[2.4796727E0,5.454634E-1,8.184314E-2,1.0511994E-2,8.516303E-2,0E0,0E0,0E0,0E0,7.883655E-3,1.1052929E-2,0E0,2.4518807E-4,0E0,0E0,9.254918E-6,0E0,0E0,0E0],"parents":[2147483647,0,0,1,1,2,2,3,3,4,4,9,9,10,10,12,12,15,15],"right_children":[2,4,6,8,10,-1,-1,-1,-1,12,14,-1,16,-1,-1,18,-1,-1,-1],"split_conditions":[9.682256E-1,-4.7226667E-1,2.3001444E0,-7.723692E-1,6.791795E-2,8.303746E-2,2.0900045E-1,-8.4272794E-2,-4.5883514E-2,-1.1214359E-1,4.28041E-1,-2.159983E-2,-1.6142686E-1,1.1519337E-2,3.530806E-2,-8.676694E-1,-5.1177023E-3,-9.0469123E-4,1.1540652E-4],"split_indices":[4,4,0,4,4,0,0,0,0,4,4,0,2,0,0,2,0,0,0],"split_type":[0,0,0,0,0,0,0,0,0,0,0,0,0,0,0,0,0,0,0],"sum_hessian":[3.8E1,3.2E1,6E0,1.4E1,1.8E1,3E0,3E0,8E0,6E0,9E0,9E0,5E0,4E0,5E0,4E0,2E0,2E0,1E0,1E0],"tree_param":{"num_deleted":"0","num_feature":"6","num_nodes":"19","size_leaf_vector":"1"}},{"base_weights":[1.5872372E-2,-7.268797E-2,4.3110365E-1,-1.5983932E-1,2.990029E-2,7.087667E-2,1.8364477E-1,-6.690679E-2,-1.0966244E-1,-1.5865311E-2,6.725857E-2,-3.627192E-2,-1.7084384E-2,-2.3712337E-2,5.117178E-3,9.485522E-3,2.6834108E-2,-7.6897145E-4,-8.228853E-3,2.2046329E-3,9.809733E-5],"categories":[],"categories_nodes":[],"categories_segments":[],"categories_sizes":[],"default_left":[0,0,0,0,0,0,0,0,0,0,0,0,0,0,0,0,0,0,0,0,0],"id":5,"left_children":[1,3,5,7,9,-1,-1,-1,11,13,15,-1,-1,17,19,-1,-1,-1,-1,-1,-1],"loss_changes":[1.4654838E0,2.9982248E-1,1.0231125E-1,3.2608956E-2,2.8422665E-2,0E0,0E0,0E0,2.2725761E-4,1.4385416E-3,4.2890273E-3,0E0,0E0,4.013807E-4,2.9666335E-5,0E0,0E0,0E0,0E0,0E0,0E0],"parents":[2147483647,0,0,1,1,2,2,3,3,4,4,8,8,9,9,10,10,13,13,14,14],"right_children":[2,4,6,8,10,-1,-1,-1,12,14,16,-1,-1,18,20,-1,-1,-1,-1,-1,-1],"split_conditions":[9.682256E-1,-2.9220513E-1,2.3486974E0,-1.0124513E0,1.2793846E-1,7.087667E-2,1.8364477E-1,-6.690679E-2,-4.7226667E-1,7.897436E-3,4.28041E-1,-3.627192E-2,-1.7084384E-2,-8.676694E-1,-3.3825506E-2,9.485522E-3,2.6834108E-2,-7.6897145E-4,-8.228853E-3,2.2046329E-3,9.809733E-5],"split_indices":[4,4,4,4,4,0,0,0,4,4,4,0,0,2,0,0,0,0,0,0,0],"split_type":[0,0,0,0,0,0,0,0,0,0,0,0,0,0,0,0,0,0,0,0,0],"sum_hessian":[3.8E1,3.2E1,6E0,1.7E1,1.5E1,4E0,2E0,6E0,1.1E1,7E0,8E0,8E0,3E0,5E0,2E0,4E0,4E0,1E0,4E0,1E0,1E0],"tree_param":{"num_deleted":"0","num_feature":"6","num_nodes":"21","size_leaf_vector":"1"}},{"base_weights":[1.5312794E-2,-5.3628184E-2,3.381327E-1,-1.1512929E-1,2.7848434E-2,5.3866282E-2,1.4691578E-1,-4.970218E-2,-7.905686E-2,-2.7294457E-3,5.494526E-2,-2.6599405E-2,-1.3785425E-2,-1.1074305E-2,8.383989E-3,7.4747265E-3,2.0393945E-2,-6.5363647E-4,-3.8260461E-3,8.339882E-5,3.2979965E-3],"categories":[],"categories_nodes":[],"categories_segments":[],"categories_sizes":[],"default_left":[0,0,0,0,0,0,0,0,0,0,0,0,0,0,0,0,0,0,0,0,0],"id":6,"left_children":[1,3,5,7,9,-1,-1,-1,11,13,15,-1,-1,17,19,-1,-1,-1,-1,-1,-1],"loss_changes":[8.860988E-1,1.6856599E-1,8.0337286E-2,2.1544427E-2,1.2578422E-2,0E0,0E0,0E0,6.0655177E-5,8.3476724E-4,1.4376007E-3,0E0,0E0,4.6898844E-5,8.154882E-5,0E0,0E0,0E0,0E0,0E0,0E0],"parents":[2147483647,0,0,1,1,2,2,3,3,4,4,8,8,9,9,10,10,13,13,14,14],"right_children":[2,4,6,8,10,-1,-1,-1,12,14,16,-1,-1,18,20,-1,-1,-1,-1,-1,-1],"split_conditions":[9.682256E-1,-1.721641E-1,2.3486974E0,-1.0124513E0,1.8795897E-1,5.3866282E-2,1.4691578E-1,-4.970218E-2,-4.7226667E-1,7.897436E-3,4.28041E-1,-2.6599405E-2,-1.3785425E-2,-8.676694E-1,6.791795E-2,7.4747265E-3,2.0393945E-2,-6.5363647E-4,-3.8260461E-3,8.339882E-5,3.2979965E-3],"split_indices":[4,4,4,4,4,0,0,0,4,4,4,0,0,2,4,0,0,0,0,0,0],"split_type":[0,0,0,0,0,0,0,0,0,0,0,0,0,0,0,0,0,0,0,0,0],"sum_hessian":[3.8E1,3.2E1,6E0,1.8E1,1.4E1,4E0,2E0,6E0,1.2E1,7E0,7E0,8E0,4E0,4E0,3E0,3E0,4E0,1E0,3E0,1E0,2E0],"tree_param":{"num_deleted":"0","num_feature":"6","num_nodes":"21","size_leaf_vector":"1"}},{"base_weights":[1.4243725E-2,-3.9458383E-2,2.65376E-1,-8.533192E-2,2.1278651E-2,4.5248453E-2,1.4289945E-1,-4.468142E-2,-6.4097136E-2,-2.0478666E-3,4.194534E-2,-7.599659E-2,-1.1382355E-2,-8.647871E-3,6.7141056E-3,6.6512064E-3,1.6853197E-2,-2.382312E-2,-6.7908526E-3,-3.3181193E-3,-1.0058165E-3,7.088185E-5,2.6383877E-3],"categories":[],"categories_nodes":[],"categories_segments":[],"categories_sizes":[],"default_left":[0,0,0,0,0,0,0,0,0,0,0,0,0,0,0,0,0,0,0,0,0,0,0],"id":7,"left_children":[1,3,5,7,9,-1,-1,-1,11,13,15,17,-1,19,21,-1,-1,-1,-1,-1,-1,-1,-1],"loss_changes":[5.364383E-1,9.376107E-2,9.7307235E-2,1.6116098E-2,7.317126E-3,0E0,0E0,0E0,2.0964593E-3,5.206951E-4,1.0059699E-3,2.4076551E-5,0E0,2.6790978E-5,5.1831128E-5,0E0,0E0,0E0,0E0,0E0,0E0,0E0,0E0],"parents":[2147483647,0,0,1,1,2,2,3,3,4,4,8,8,9,9,10,10,11,11,13,13,14,14],"right_children":[2,4,6,8,10,-1,-1,-1,12,14,16,18,-1,20,22,-1,-1,-1,-1,-1,-1,-1,-1],"split_conditions":[9.682256E-1,-1.721641E-1,3.0689435E0,-1.0724717E0,1.8795897E-1,4.5248453E-2,1.4289945E-1,-4.468142E-2,-5.322872E-1,7.897436E-3,5.4808205E-1,5.4481566E-1,-1.1382355E-2,1.1500672E0,6.791795E-2,6.6512064E-3,1.6853197E-2,-2.382312E-2,-6.7908526E-3,-3.3181193E-3,-1.0058165E-3,7.088185E-5,2.6383877E-3],"split_indices":[4,4,4,4,4,0,0,0,4,4,4,2,0,0,4,0,0,0,0,0,0,0,0],"split_type":[0,0,0,0,0,0,0,0,0,0,0,0,0,0,0,0,0,0,0,0,0,0,0],"sum_hessian":[3.8E1,3.2E1,6E0,1.8E1,1.4E1,5E0,1E0,3E0,1.5E1,7E0,7E0,9E0,6E0,4E0,3E0,4E0,3E0,8E0,1E0,2E0,2E0,1E0,2E0],"tree_param":{"num_deleted":"0","num_feature":"6","num_nodes":"23","size_leaf_vector":"1"}},{"base_weights":[1.3133694E-2,-3.3274386E-2,1.971243E-1,-7.879214E-2,-2.024126E-3,3.288133E-2,1.2146452E-1,-3.4628097E-2,-1.6877698E-2,-2.1080516E-2,1.9140314E-2,-8.125493E-3,-1.1404395E-3,2.3194153E-3,6.916684E-3,9.834766E-4,6.02603E-5],"categories":[],"categories_nodes":[],"categories_segments":[],"categories_sizes":[],"default_left":[0,0,0,0,0,0,0,0,0,0,0,0,0,0,0,0,0],"id":8,"left_children":[1,3,5,7,9,-1,-1,-1,-1,11,13,-1,-1,15,-1,-1,-1],"loss_changes":[3.395666E-1,4.5358654E-2,1.0108641E-1,4.2376667E-3,8.469845E-3,0E0,0E0,0E0,0E0,1.0383022E-3,6.051122E-4,0E0,0E0,5.4355496E-6,0E0,0E0,0E0],"parents":[2147483647,0,0,1,1,2,2,3,3,4,4,9,9,10,10,13,13],"right_children":[2,4,6,8,10,-1,-1,-1,-1,12,14,-1,-1,16,-1,-1,-1],"split_conditions":[7.281436E-1,-5.322872E-1,3.0689435E0,-1.0724717E0,7.897436E-3,3.288133E-2,1.2146452E-1,-3.4628097E-2,-1.6877698E-2,-1.1214359E-1,1.2793846E-1,-8.125493E-3,-1.1404395E-3,-3.3825506E-2,6.916684E-3,9.834766E-4,6.02603E-5],"split_indices":[4,4,4,4,4,0,0,0,0,4,4,0,0,0,0,0,0],"split_type":[0,0,0,0,0,0,0,0,0,0,0,0,0,0,0,0,0],"sum_hessian":[3.8E1,3.1E1,7E0,1.2E1,1.9E1,6E0,1E0,3E0,9E0,1E1,9E0,7E0,3E0,2E0,7E0,1E0,1E0],"tree_param":{"num_deleted":"0","num_feature":"6","num_nodes":"17","size_leaf_vector":"1"}},{"base_weights":[1.1797021E-2,-6.005654E-3,1.0324481E-1,-3.069023E-2,6.6180184E-2,-5.91165E-2,-7.147186E-3,6.889379E-3,2.4426147E-2,-2.6836762E-2,-4.10691E-2,-1.9975126E-2,3.8298846E-3,-1.2969574E-2,-3.2405735E-3,-6.366042E-3,-1.689005E-3,-2.2886754E-3,2.4871111E-3,-1.21617326E-4,-1.0227204E-3],"categories":[],"categories_nodes":[],"categories_segments":[],"categories_sizes":[],"default_left":[0,0,0,0,0,0,0,0,0,0,0,0,0,0,0,0,0,0,0,0,0],"id":9,"left_children":[1,3,-1,5,7,9,11,-1,-1,-1,13,15,17,-1,-1,-1,-1,19,-1,-1,-1],"loss_changes":[2.3282051E-1,6.9742404E-2,0E0,1.898547E-2,4.7164E-3,3.444232E-3,2.4703268E-3,0E0,0E0,0E0,1.8763542E-4,2.3409026E-5,2.9189145E-4,0E0,0E0,0E0,0E0,9.168081E-6,0E0,0E0,0E0],"parents":[2147483647,0,0,1,1,3,3,4,4,5,5,6,6,10,10,11,11,12,12,17,17],"right_children":[2,4,-1,6,8,10,12,-1,-1,-1,14,16,18,-1,-1,-1,-1,20,-1,-1,-1],"split_conditions":[3.0689435E0,4.28041E-1,1.0324481E-1,-5.322872E-1,7.281436E-1,-1.0724717E0,-1.1214359E-1,6.889379E-3,2.4426147E-2,-2.6836762E-2,5.4481566E-1,-1.721641E-1,6.791795E-2,-1.2969574E-2,-3.2405735E-3,-6.366042E-3,-1.689005E-3,-1.6142686E-1,2.4871111E-3,-1.21617326E-4,-1.0227204E-3],"split_indices":[4,4,0,4,4,4,4,0,0,0,2,4,4,0,0,0,0,2,0,0,0],"split_type":[0,0,0,0,0,0,0,0,0,0,0,0,0,0,0,0,0,0,0,0,0],"sum_hessian":[3.8E1,3.7E1,1E0,2.8E1,9E0,1.2E1,1.6E1,3E0,6E0,3E0,9E0,7E0,9E0,8E0,1E0,6E0,1E0,4E0,5E0,2E0,2E0],"tree_param":{"num_deleted":"0","num_feature":"6","num_nodes":"21","size_leaf_vector":"1"}},{"base_weights":[1.0432305E-2,-4.689317E-3,8.7758094E-2,-2.1987129E-2,5.349109E-2,-4.469283E-2,-4.36706E-3,6.6922726E-3,6.536492E-2,-2.0798493E-2,-9.1108065E-3,-4.4968487E-3,3.7553527E-3,2.276922E-2,8.859992E-3,-1.8309116E-3,7.2090626E-3,-7.2131754E-4,6.945134E-5,8.232594E-4,2.5338507E-3],"categories":[],"categories_nodes":[],"categories_segments":[],"categories_sizes":[],"default_left":[0,0,0,0,0,0,0,0,1,0,0,0,0,0,0,0,0,0,0,0,0],"id":10,"left_children":[1,3,-1,5,7,9,11,-1,13,-1,-1,-1,15,-1,-1,17,19,-1,-1,-1,-1],"loss_changes":[1.6773516E-1,3.9419077E-2,0E0,1.1807102E-2,1.8742755E-3,2.4817996E-3,1.6093272E-3,0E0,2.287142E-5,0E0,0E0,0E0,2.2542587E-4,0E0,0E0,6.470402E-6,1.5486614E-5,0E0,0E0,0E0,0E0],"parents":[2147483647,0,0,1,1,3,3,4,4,5,5,6,6,8,8,12,12,15,15,16,16],"right_children":[2,4,-1,6,8,10,12,-1,14,-1,-1,-1,16,-1,-1,18,20,-1,-1,-1,-1],"split_conditions":[3.0689435E0,5.4808205E-1,8.7758094E-2,-5.322872E-1,9.682256E-1,-1.0724717E0,-1.1214359E-1,6.6922726E-3,1.1500672E0,-2.0798493E-2,-9.1108065E-3,-4.4968487E-3,6.791795E-2,2.276922E-2,8.859992E-3,7.897436E-3,1.8795897E-1,-7.2131754E-4,6.945134E-5,8.232594E-4,2.5338507E-3],"split_indices":[4,4,0,4,4,4,4,0,0,0,0,0,4,0,0,4,4,0,0,0,0],"split_type":[0,0,0,0,0,0,0,0,0,0,0,0,0,0,0,0,0,0,0,0,0],"sum_hessian":[3.8E1,3.7E1,1E0,2.9E1,8E0,1.2E1,1.7E1,3E0,5E0,3E0,9E0,7E0,1E1,3E0,2E0,4E0,6E0,3E0,1E0,2E0,4E0],"tree_param":{"num_deleted":"0","num_feature":"6","num_nodes":"21","size_leaf_vector":"1"}},{"base_weights":[9.722554E-3,-3.1083226E-3,7.459438E-2,-1.6447715E-2,4.170169E-2,-3.3585705E-2,-3.1565162E-3,1.7288446E-2,1.530807E-2,-1.6118843E-2,-2.2169625E-2,-1.1054784E-2,2.8746345E-3,1.0986687E-3,6.1829328E-3,-2.360487E-2,-1.3878644E-3,-1.1909144E-2,-7.6113944E-4,-7.9961616E-4,1.8209339E-3,-3.4415247E-3,-8.327842E-3,-1.4178038E-3,-4.1511585E-3,-5.590439E-4,2.6562216E-4],"categories":[],"categories_nodes":[],"categories_segments":[],"categories_sizes":[],"default_left":[0,0,0,0,0,0,0,0,0,0,0,0,0,0,0,0,0,0,0,0,0,0,0,0,0,0,0],"id":11,"left_children":[1,3,-1,5,7,9,11,13,-1,-1,15,17,19,-1,-1,21,-1,23,-1,25,-1,-1,-1,-1,-1,-1,-1],"loss_changes":[1.2033214E-1,2.3399955E-2,0E0,6.7275194E-3,1.1667516E-3,1.7983541E-3,8.8922E-4,1.0555098E-4,0E0,0E0,1.4258921E-4,2.800196E-5,1.3399089E-4,0E0,0E0,1.3522524E-4,0E0,3.1551346E-5,0E0,1.2405746E-5,0E0,0E0,0E0,0E0,0E0,0E0,0E0],"parents":[2147483647,0,0,1,1,3,3,4,4,5,5,6,6,7,7,10,10,11,11,12,12,15,15,17,17,19,19],"right_children":[2,4,-1,6,8,10,12,14,-1,-1,16,18,20,-1,-1,22,-1,24,-1,26,-1,-1,-1,-1,-1,-1,-1],"split_conditions":[3.0689435E0,5.4808205E-1,7.459438E-2,-5.322872E-1,9.682256E-1,-1.0724717E0,-1.1214359E-1,1.1500672E0,1.530807E-2,-1.6118843E-2,5.4481566E-1,-1.721641E-1,1.2793846E-1,1.0986687E-3,6.1829328E-3,-8.676694E-1,-1.3878644E-3,-3.3825506E-2,-7.6113944E-4,7.897436E-3,1.8209339E-3,-3.4415247E-3,-8.327842E-3,-1.4178038E-3,-4.1511585E-3,-5.590439E-4,2.6562216E-4],"split_indices":[4,4,0,4,4,4,4,0,0,0,2,4,4,0,0,2,0,0,0,4,0,0,0,0,0,0,0],"split_type":[0,0,0,0,0,0,0,0,0,0,0,0,0,0,0,0,0,0,0,0,0,0,0,0,0,0,0],"sum_hessian":[3.8E1,3.7E1,1E0,2.9E1,8E0,1.2E1,1.7E1,3E0,5E0,3E0,9E0,7E0,1E1,1E0,2E0,8E0,1E0,6E0,1E0,5E0,5E0,3E0,5E0,2E0,4E0,3E0,2E0],"tree_param":{"num_deleted":"0","num_feature":"6","num_nodes":"27","size_leaf_vector":"1"}},{"base_weights":[8.423863E-3,-2.478176E-3,6.340521E-2,-1.4877403E-2,2.56266E-2,-1.2492094E-2,-9.797026E-3,1.3685386E-2,1.3826305E-2,-1.4974943E-2,-1.0504484E-3,1.5922219E-2,-6.31392E-4,-5.041275E-3,-2.386644E-3,-2.955715E-3,1.445961E-3,1.6656519E-3,6.310144E-3,-1.1755228E-3,-2.0606519E-4,1.9204617E-5,5.326331E-4],"categories":[],"categories_nodes":[],"categories_segments":[],"categories_sizes":[],"default_left":[0,0,0,0,0,0,0,0,0,0,0,0,0,0,0,0,0,0,0,0,0,0,0],"id":12,"left_children":[1,3,-1,5,7,-1,9,11,-1,13,15,17,-1,-1,-1,19,21,-1,-1,-1,-1,-1,-1],"loss_changes":[8.68041E-2,1.3623402E-2,0E0,3.2631215E-3,2.3012338E-3,0E0,1.0712072E-3,3.513873E-4,0E0,5.8925245E-5,5.18371E-5,3.0727615E-4,0E0,0E0,0E0,1.04136525E-5,2.1629794E-6,0E0,0E0,0E0,0E0,0E0,0E0],"parents":[2147483647,0,0,1,1,3,3,4,4,6,6,7,7,9,9,10,10,11,11,15,15,16,16],"right_children":[2,4,-1,6,8,-1,10,12,-1,14,16,18,-1,-1,-1,20,22,-1,-1,-1,-1,-1,-1],"split_conditions":[3.0689435E0,2.4797948E-1,6.340521E-2,-1.0724717E0,1.5684308E0,-1.2492094E-2,-2.9220513E-1,1.1482872E0,1.3826305E-2,5.4481566E-1,7.897436E-3,5.4808205E-1,-6.31392E-4,-5.041275E-3,-2.386644E-3,1.1500672E0,6.791795E-2,1.6656519E-3,6.310144E-3,-1.1755228E-3,-2.0606519E-4,1.9204617E-5,5.326331E-4],"split_indices":[4,4,0,4,4,0,4,4,0,2,4,4,0,0,0,0,4,0,0,0,0,0,0],"split_type":[0,0,0,0,0,0,0,0,0,0,0,0,0,0,0,0,0,0,0,0,0,0,0],"sum_hessian":[3.8E1,3.7E1,1E0,2.6E1,1.1E1,3E0,2.3E1,8E0,3E0,1.4E1,9E0,7E0,1E0,1E1,4E0,5E0,4E0,3E0,4E0,3E0,2E0,1E0,3E0],"tree_param":{"num_deleted":"0","num_feature":"6","num_nodes":"23","size_leaf_vector":"1"}},{"base_weights":[7.5332536E-3,-1.7236691E-3,5.389445E-2,-1.0064064E-2,2.2635842E-2,-1.2954247E-2,-7.3391497E-3,1.1926685E-2,1.0715372E-2,-1.3445769E-2,-1.1503617E-3,1.4510791E-2,-5.3669215E-4,-6.529063E-3,-5.828926E-3,-3.6603743E-3,2.2411346E-3,8.779049E-3,6.475425E-3,-2.5792422E-3,-6.476641E-5,-1.4377058E-3,-3.1419398E-4,1.5730858E-4,8.468915E-4,7.0521835E-4,3.6843063E-3],"categories":[],"categories_nodes":[],"categories_segments":[],"categories_sizes":[],"default_left":[0,0,0,0,0,0,0,0,0,0,0,0,0,0,0,0,0,0,0,0,0,0,0,0,0,0,0],"id":13,"left_children":[1,3,-1,5,7,-1,9,11,-1,13,15,17,-1,19,-1,21,23,25,-1,-1,-1,-1,-1,-1,-1,-1,-1],"loss_changes":[6.2446572E-2,7.948189E-3,0E0,2.3000587E-3,9.749825E-4,0E0,1.0427246E-3,2.7405843E-4,0E0,4.5259437E-4,1.3589388E-4,5.3783064E-5,0E0,1.026098E-4,0E0,2.160226E-5,5.5119126E-6,8.3689636E-5,0E0,0E0,0E0,0E0,0E0,0E0,0E0,0E0,0E0],"parents":[2147483647,0,0,1,1,3,3,4,4,6,6,7,7,9,9,10,10,11,11,13,13,15,15,16,16,17,17],"right_children":[2,4,-1,6,8,-1,10,12,-1,14,16,18,-1,20,-1,22,24,26,-1,-1,-1,-1,-1,-1,-1,-1,-1],"split_conditions":[3.0689435E0,4.28041E-1,5.389445E-2,-1.1324923E0,1.5684308E0,-1.2954247E-2,-4.7226667E-1,1.1482872E0,1.0715372E-2,-3.3825506E-2,7.897436E-3,9.682256E-1,-5.3669215E-4,-6.523282E-1,-5.828926E-3,-1.1214359E-1,1.2793846E-1,1.1500672E0,6.475425E-3,-2.5792422E-3,-6.476641E-5,-1.4377058E-3,-3.1419398E-4,1.5730858E-4,8.468915E-4,7.0521835E-4,3.6843063E-3],"split_indices":[4,4,0,4,4,0,4,4,0,0,4,4,0,4,0,4,4,0,0,0,0,0,0,0,0,0,0],"split_type":[0,0,0,0,0,0,0,0,0,0,0,0,0,0,0,0,0,0,0,0,0,0,0,0,0,0,0],"sum_hessian":[3.8E1,3.7E1,1E0,2.8E1,9E0,1E0,2.7E1,6E0,3E0,1.3E1,1.4E1,5E0,1E0,7E0,6E0,8E0,6E0,4E0,1E0,5E0,2E0,5E0,3E0,2E0,4E0,2E0,2E0],"tree_param":{"num_deleted":"0","num_feature":"6","num_nodes":"27","size_leaf_vector":"1"}},{"base_weights":[6.6261687E-3,-1.2363478E-3,4.581027E-2,-7.809495E-3,1.7949414E-2,-1.10111125E-2,-5.466712E-3,8.395582E-3,9.650434E-3,-8.894848E-3,6.399371E-4,1.8805662E-3,1.2382269E-2,-4.9153566E-3,-1.15869045E-2,-8.325179E-4,2.005736E-3,9.6470123E-4,-1.18446354E-4,5.5041076E-3,6.3043237E-3,-2.1474052E-3,-5.0688745E-4,-4.330046E-3,-1.1125982E-3,3.159046E-5,-3.9832594E-4,2.7396085E-4,8.381605E-4,5.2862166E-4,2.9896619E-3],"categories":[],"categories_nodes":[],"categories_segments":[],"categories_sizes":[],"default_left":[0,0,0,0,1,0,0,0,0,0,0,0,0,0,0,0,0,0,0,0,0,0,0,0,0,0,0,0,0,0,0],"id":14,"left_children":[1,3,-1,5,7,-1,9,-1,11,13,15,17,19,21,23,25,27,-1,-1,-1,29,-1,-1,-1,-1,-1,-1,-1,-1,-1,-1],"loss_changes":[4.4980876E-2,4.9323877E-3,0E0,1.7624443E-3,5.628038E-4,0E0,5.9185585E-4,0E0,1.252963E-4,1.3588066E-4,2.3791667E-5,1.0383253E-5,6.560172E-5,5.3013646E-5,1.7073157E-4,2.926461E-6,2.6149955E-6,0E0,0E0,0E0,4.8960646E-5,0E0,0E0,0E0,0E0,0E0,0E0,0E0,0E0,0E0,0E0],"parents":[2147483647,0,0,1,1,3,3,4,4,6,6,8,8,9,9,10,10,11,11,12,12,13,13,14,14,15,15,16,16,20,20],"right_children":[2,4,-1,6,8,-1,10,-1,12,14,16,18,20,22,24,26,28,-1,-1,-1,30,-1,-1,-1,-1,-1,-1,-1,-1,-1,-1],"split_conditions":[3.0689435E0,4.28041E-1,4.581027E-2,-1.1324923E0,1.2510582E0,-1.10111125E-2,-1.721641E-1,8.395582E-3,7.281436E-1,-3.3825506E-2,6.791795E-2,-3.3825506E-2,1.1500672E0,-7.723692E-1,-4.7226667E-1,-1.6142686E-1,2.4797948E-1,9.6470123E-4,-1.18446354E-4,5.5041076E-3,1.5684308E0,-2.1474052E-3,-5.0688745E-4,-4.330046E-3,-1.1125982E-3,3.159046E-5,-3.9832594E-4,2.7396085E-4,8.381605E-4,5.2862166E-4,2.9896619E-3],"split_indices":[4,4,0,4,2,0,4,0,4,0,4,0,0,4,4,2,4,0,0,0,4,0,0,0,0,0,0,0,0,0,0],"split_type":[0,0,0,0,0,0,0,0,0,0,0,0,0,0,0,0,0,0,0,0,0,0,0,0,0,0,0,0,0,0,0],"sum_hessian":[3.8E1,3.7E1,1E0,2.8E1,9E0,1E0,2.7E1,3E0,6E0,1.7E1,1E1,2E0,4E0,8E0,9E0,5E0,5E0,1E0,1E0,1E0,3E0,4E0,4E0,6E0,3E0,2E0,3E0,3E0,2E0,2E0,1E0],"tree_param":{"num_deleted":"0","num_feature":"6","num_nodes":"31","size_leaf_vector":"1"}},{"base_weights":[5.8104256E-3,-8.680256E-4,3.893874E-2,-6.0998243E-3,1.4390993E-2,-9.359444E-3,-4.0892363E-3,5.0691604E-3,1.9760689E-2,-6.6762236E-3,5.157644E-4,1.5985171E-3,2.0550252E-3,7.88945E-3,4.4571557E-3,-3.7356615E-3,-8.655107E-3,-6.438494E-4,1.5894175E-3,8.2000496E-4,-1.0067225E-4,-5.3547625E-4,2.5411965E-3,-1.6320206E-3,-3.8523675E-4,-3.2166075E-3,-8.622676E-4,2.5272371E-5,-3.0868652E-4,2.1232368E-4,6.7055225E-4],"categories":[],"categories_nodes":[],"categories_segments":[],"categories_sizes":[],"default_left":[0,0,0,0,0,0,0,0,1,0,0,0,0,0,0,0,0,0,0,0,0,0,0,0,0,0,0,0,0,0,0],"id":15,"left_children":[1,3,-1,5,7,-1,9,11,13,15,17,19,-1,-1,21,23,25,27,29,-1,-1,-1,-1,-1,-1,-1,-1,-1,-1,-1,-1],"loss_changes":[3.2405846E-2,3.1214026E-3,0E0,1.3358325E-3,4.003842E-4,0E0,3.3700955E-4,1.9954765E-5,4.8306398E-4,7.240998E-5,1.4718597E-5,7.5018515E-6,0E0,0E0,9.027714E-5,3.0620053E-5,8.8668545E-5,1.7690311E-6,1.8341389E-6,0E0,0E0,0E0,0E0,0E0,0E0,0E0,0E0,0E0,0E0,0E0,0E0],"parents":[2147483647,0,0,1,1,3,3,4,4,6,6,7,7,8,8,9,9,10,10,11,11,14,14,15,15,16,16,17,17,18,18],"right_children":[2,4,-1,6,8,-1,10,12,14,16,18,20,-1,-1,22,24,26,28,30,-1,-1,-1,-1,-1,-1,-1,-1,-1,-1,-1,-1],"split_conditions":[3.0689435E0,4.28041E-1,3.893874E-2,-1.1324923E0,9.682256E-1,-9.359444E-3,-1.721641E-1,1.1500672E0,1.1500672E0,-3.3825506E-2,6.791795E-2,-3.3825506E-2,2.0550252E-3,7.88945E-3,1.5684308E0,-7.723692E-1,-4.7226667E-1,-1.6142686E-1,2.4797948E-1,8.2000496E-4,-1.0067225E-4,-5.3547625E-4,2.5411965E-3,-1.6320206E-3,-3.8523675E-4,-3.2166075E-3,-8.622676E-4,2.5272371E-5,-3.0868652E-4,2.1232368E-4,6.7055225E-4],"split_indices":[4,4,0,4,4,0,4,0,0,0,4,0,0,0,4,4,4,2,4,0,0,0,0,0,0,0,0,0,0,0,0],"split_type":[0,0,0,0,0,0,0,0,0,0,0,0,0,0,0,0,0,0,0,0,0,0,0,0,0,0,0,0,0,0,0],"sum_hessian":[3.8E1,3.7E1,1E0,2.8E1,9E0,1E0,2.7E1,4E0,5E0,1.7E1,1E1,2E0,2E0,3E0,2E0,8E0,9E0,5E0,5E0,1E0,1E0,1E0,1E0,4E0,4E0,6E0,3E0,2E0,3E0,3E0,2E0],"tree_param":{"num_deleted":"0","num_feature":"6","num_nodes":"31","size_leaf_vector":"1"}},{"base_weights":[5.009682E-3,-6.651439E-4,3.309796E-2,-4.7821505E-3,1.134069E-2,-7.955521E-3,-3.05877E-3,5.8260984E-3,5.446816E-3,-5.012029E-3,4.155419E-4,7.3028407E-3,-4.55153E-4,-1.7196337E-3,-6.146055E-3,-4.9789745E-4,1.2597243E-3,4.1033267E-3,3.4950615E-3,-1.5972138E-3,4.2407514E-4,-2.6268228E-3,-7.97408E-4,2.0217896E-5,-2.3921729E-4,5.5029395E-4,1.541555E-4,4.0762426E-4,1.6440393E-3],"categories":[],"categories_nodes":[],"categories_segments":[],"categories_sizes":[],"default_left":[0,0,0,0,0,0,0,0,0,0,0,0,0,0,0,0,0,0,0,0,0,0,0,0,0,0,0,0,0],"id":16,"left_children":[1,3,-1,5,7,-1,9,11,-1,13,15,17,-1,19,21,23,25,27,-1,-1,-1,-1,-1,-1,-1,-1,-1,-1,-1],"loss_changes":[2.3381919E-2,1.9325006E-3,0E0,1.0052216E-3,2.7006038E-4,0E0,1.9209716E-4,8.698854E-5,0E0,5.6636985E-5,9.109417E-6,3.5652134E-5,0E0,7.5286414E-5,9.507587E-5,1.0695433E-6,1.6288559E-6,1.1447628E-5,0E0,0E0,0E0,0E0,0E0,0E0,0E0,0E0,0E0,0E0,0E0],"parents":[2147483647,0,0,1,1,3,3,4,4,6,6,7,7,9,9,10,10,11,11,13,13,14,14,15,15,16,16,17,17],"right_children":[2,4,-1,6,8,-1,10,12,-1,14,16,18,-1,20,22,24,26,28,-1,-1,-1,-1,-1,-1,-1,-1,-1,-1,-1],"split_conditions":[3.0689435E0,4.28041E-1,3.309796E-2,-1.1324923E0,1.5684308E0,-7.955521E-3,-1.721641E-1,1.1482872E0,5.446816E-3,-8.676694E-1,6.791795E-2,9.682256E-1,-4.55153E-4,-1.0724717E0,-5.322872E-1,-1.6142686E-1,1.1500672E0,1.1500672E0,3.4950615E-3,-1.5972138E-3,4.2407514E-4,-2.6268228E-3,-7.97408E-4,2.0217896E-5,-2.3921729E-4,5.5029395E-4,1.541555E-4,4.0762426E-4,1.6440393E-3],"split_indices":[4,4,0,4,4,0,4,4,0,2,4,4,0,4,4,2,0,0,0,0,0,0,0,0,0,0,0,0,0],"split_type":[0,0,0,0,0,0,0,0,0,0,0,0,0,0,0,0,0,0,0,0,0,0,0,0,0,0,0,0,0],"sum_hessian":[3.8E1,3.7E1,1E0,2.8E1,9E0,1E0,2.7E1,6E0,3E0,1.7E1,1E1,5E0,1E0,5E0,1.2E1,5E0,5E0,4E0,1E0,2E0,3E0,6E0,6E0,2E0,3E0,2E0,3E0,2E0,2E0],"tree_param":{"num_deleted":"0","num_feature":"6","num_nodes":"29","size_leaf_vector":"1"}},{"base_weights":[4.3162047E-3,-5.058772E-4,2.8133297E-2,-4.2150416E-3,7.881899E-3,-6.762189E-3,-2.6432644E-3,4.7252416E-3,4.733038E-3,-4.493952E-3,-9.864966E-4,7.921457E-5,5.191591E-3,-2.484095E-3,-9.69549E-3,-1.9745487E-3,-1.0840098E-4,5.764348E-3,2.1246274E-3,-1.0803536E-3,3.9684775E-4,6.3711405E-4,-5.0000846E-3,-1.5686275E-4,-1.1207463E-3,-1.1552573E-4,1.00117926E-4,1.0272503E-3,2.970815E-3,-3.8688185E-4,1.3429642E-3],"categories":[],"categories_nodes":[],"categories_segments":[],"categories_sizes":[],"default_left":[0,0,0,0,0,0,0,0,0,0,0,0,0,0,0,0,0,0,0,0,0,0,0,0,0,0,0,0,0,0,0],"id":17,"left_children":[1,3,-1,5,7,-1,9,11,-1,13,15,-1,17,19,21,23,25,27,29,-1,-1,-1,-1,-1,-1,-1,-1,-1,-1,-1,-1],"loss_changes":[1.6871668E-2,1.2154651E-3,0E0,7.1812025E-4,2.2450864E-4,0E0,7.5286865E-5,1.9433923E-5,0E0,1.0136764E-4,1.2800017E-5,0E0,3.5625271E-6,4.729021E-5,2.825871E-4,1.5944162E-5,1.2294825E-6,3.3883145E-5,2.9862993E-5,0E0,0E0,0E0,0E0,0E0,0E0,0E0,0E0,0E0,0E0,0E0,0E0],"parents":[2147483647,0,0,1,1,3,3,4,4,6,6,7,7,9,9,10,10,12,12,13,13,14,14,15,15,16,16,17,17,18,18],"right_children":[2,4,-1,6,8,-1,10,12,-1,14,16,-1,18,20,22,24,26,28,30,-1,-1,-1,-1,-1,-1,-1,-1,-1,-1,-1,-1],"split_conditions":[3.0689435E0,2.4797948E-1,2.8133297E-2,-1.1324923E0,2.3001444E0,-6.762189E-3,-5.322872E-1,5.4481566E-1,4.733038E-3,-5.923077E-1,-1.721641E-1,7.921457E-5,1.1482872E0,-7.723692E-1,-3.3825506E-2,-4.1224614E-1,6.791795E-2,9.682256E-1,1.5684308E0,-1.0803536E-3,3.9684775E-4,6.3711405E-4,-5.0000846E-3,-1.5686275E-4,-1.1207463E-3,-1.1552573E-4,1.00117926E-4,1.0272503E-3,2.970815E-3,-3.8688185E-4,1.3429642E-3],"split_indices":[4,4,0,4,0,0,4,2,0,4,4,0,4,4,0,4,4,4,4,0,0,0,0,0,0,0,0,0,0,0,0],"split_type":[0,0,0,0,0,0,0,0,0,0,0,0,0,0,0,0,0,0,0,0,0,0,0,0,0,0,0,0,0,0,0],"sum_hessian":[3.8E1,3.7E1,1E0,2.6E1,1.1E1,1E0,2.5E1,9E0,2E0,1.1E1,1.4E1,1E0,8E0,9E0,2E0,6E0,8E0,6E0,2E0,7E0,2E0,1E0,1E0,4E0,2E0,5E0,3E0,5E0,1E0,1E0,1E0],"tree_param":{"num_deleted":"0","num_feature":"6","num_nodes":"31","size_leaf_vector":"1"}},{"base_weights":[3.6571943E-3,-4.4187746E-4,2.3913288E-2,-3.4357442E-3,6.3311458E-3,-5.747867E-3,-2.0940762E-3,4.0864293E-3,4.653454E-3,-3.566285E-3,-7.7670417E-4,2.2653171E-3,5.818701E-3,-1.807189E-3,-8.241177E-3,-1.564673E-3,-2.3261708E-5,6.734133E-5,2.5680463E-3,2.3675682E-3,1.8059412E-3,-2.5877953E-4,-1.5462757E-3,5.41538E-4,-4.2500678E-3,-1.19211676E-4,-8.9658506E-4,3.233135E-4,1.1097431E-3,-3.2883883E-4,1.1415124E-3],"categories":[],"categories_nodes":[],"categories_segments":[],"categories_sizes":[],"default_left":[0,0,0,0,0,0,0,0,0,0,0,0,1,0,0,0,0,0,0,0,0,0,0,0,0,0,0,0,0,0,0],"id":18,"left_children":[1,3,-1,5,7,-1,9,11,-1,13,15,17,19,21,23,25,-1,-1,27,-1,29,-1,-1,-1,-1,-1,-1,-1,-1,-1,-1],"loss_changes":[1.21934675E-2,7.922983E-4,0E0,5.29474E-4,1.8390117E-4,0E0,4.765566E-5,2.152007E-5,0E0,8.378964E-5,8.142481E-6,3.748315E-6,2.734382E-5,2.716999E-5,2.0416762E-4,1.04476E-5,0E0,0E0,6.1276696E-6,0E0,2.1575408E-5,0E0,0E0,0E0,0E0,0E0,0E0,0E0,0E0,0E0,0E0],"parents":[2147483647,0,0,1,1,3,3,4,4,6,6,7,7,9,9,10,10,11,11,12,12,13,13,14,14,15,15,18,18,20,20],"right_children":[2,4,-1,6,8,-1,10,12,-1,14,16,18,20,22,24,26,-1,-1,28,-1,30,-1,-1,-1,-1,-1,-1,-1,-1,-1,-1],"split_conditions":[3.0689435E0,2.4797948E-1,2.3913288E-2,-1.1324923E0,2.3486974E0,-5.747867E-3,-5.322872E-1,9.682256E-1,4.653454E-3,-5.923077E-1,-1.721641E-1,5.4481566E-1,1.1500672E0,1.1500672E0,-3.3825506E-2,-4.1224614E-1,-2.3261708E-5,6.734133E-5,1.1500672E0,2.3675682E-3,1.5684308E0,-2.5877953E-4,-1.5462757E-3,5.41538E-4,-4.2500678E-3,-1.19211676E-4,-8.9658506E-4,3.233135E-4,1.1097431E-3,-3.2883883E-4,1.1415124E-3],"split_indices":[4,4,0,4,4,0,4,4,0,4,4,2,0,0,0,4,0,0,0,0,4,0,0,0,0,0,0,0,0,0,0],"split_type":[0,0,0,0,0,0,0,0,0,0,0,0,0,0,0,0,0,0,0,0,0,0,0,0,0,0,0,0,0,0,0],"sum_hessian":[3.8E1,3.7E1,1E0,2.6E1,1.1E1,1E0,2.5E1,1E1,1E0,1.1E1,1.4E1,6E0,4E0,9E0,2E0,6E0,8E0,1E0,5E0,2E0,2E0,8E0,1E0,1E0,1E0,4E0,2E0,3E0,2E0,1E0,1E0],"tree_param":{"num_deleted":"0","num_feature":"6","num_nodes":"31","size_leaf_vector":"1"}},{"base_weights":[3.0971582E-3,-3.8735176E-4,2.0326281E-2,-2.8605594E-3,5.209645E-3,-4.8856796E-3,-1.7178425E-3,3.286015E-3,3.955436E-3,-2.7771592E-3,-4.4489824E-4,1.8000603E-3,4.7091483E-3,-8.300394E-4,-4.605702E-3,6.333192E-4,-6.9851225E-4,5.7256224E-5,2.0364523E-3,1.8940688E-3,1.5350183E-3,-8.7975565E-4,3.0538562E-4,-2.4163486E-4,-2.821267E-3,-5.6594614E-5,3.4158828E-4,-8.772612E-4,-5.505681E-5,1.0372639E-3,3.182173E-4,-2.7952195E-4,9.702802E-4],"categories":[],"categories_nodes":[],"categories_segments":[],"categories_sizes":[],"default_left":[0,0,0,0,0,0,0,0,0,0,0,0,1,0,0,0,0,0,0,0,0,0,0,0,0,0,0,0,0,0,0,0,0],"id":19,"left_children":[1,3,-1,5,7,-1,9,11,-1,13,15,17,19,21,23,25,27,-1,29,-1,31,-1,-1,-1,-1,-1,-1,-1,-1,-1,-1,-1,-1],"loss_changes":[8.81288E-3,5.4091885E-4,0E0,3.8623135E-4,1.407692E-4,0E0,3.3824173E-5,1.4785081E-5,0E0,4.602258E-5,3.9972456E-6,2.2741588E-6,1.5771664E-5,3.406807E-5,1.20074474E-4,1.4608422E-6,1.2071629E-5,0E0,4.6521036E-6,0E0,1.5588403E-5,0E0,0E0,0E0,0E0,0E0,0E0,0E0,0E0,0E0,0E0,0E0,0E0],"parents":[2147483647,0,0,1,1,3,3,4,4,6,6,7,7,9,9,10,10,11,11,12,12,13,13,14,14,15,15,16,16,18,18,20,20],"right_children":[2,4,-1,6,8,-1,10,12,-1,14,16,18,20,22,24,26,28,-1,30,-1,32,-1,-1,-1,-1,-1,-1,-1,-1,-1,-1,-1,-1],"split_conditions":[3.0689435E0,2.4797948E-1,2.0326281E-2,-1.1324923E0,2.3486974E0,-4.8856796E-3,-4.7226667E-1,9.682256E-1,3.955436E-3,-3.3825506E-2,-4.1224614E-1,5.4481566E-1,1.1500672E0,-1.6142686E-1,-5.923077E-1,1.1500672E0,-2.9220513E-1,5.7256224E-5,1.2510582E0,1.8940688E-3,1.5684308E0,-8.7975565E-4,3.0538562E-4,-2.4163486E-4,-2.821267E-3,-5.6594614E-5,3.4158828E-4,-8.772612E-4,-5.505681E-5,1.0372639E-3,3.182173E-4,-2.7952195E-4,9.702802E-4],"split_indices":[4,4,0,4,4,0,4,4,0,0,4,2,0,2,4,0,4,0,2,0,4,0,0,0,0,0,0,0,0,0,0,0,0],"split_type":[0,0,0,0,0,0,0,0,0,0,0,0,0,0,0,0,0,0,0,0,0,0,0,0,0,0,0,0,0,0,0,0,0],"sum_hessian":[3.8E1,3.7E1,1E0,2.6E1,1.1E1,1E0,2.5E1,1E1,1E0,1.3E1,1.2E1,6E0,4E0,7E0,6E0,2E0,1E1,1E0,5E0,2E0,2E0,3E0,4E0,4E0,2E0,1E0,1E0,1E0,9E0,1E0,4E0,1E0,1E0],"tree_param":{"num_deleted":"0","num_feature":"6","num_nodes":"33","size_leaf_vector":"1"}},{"base_weights":[2.657988E-3,-3.031806E-4,1.727736E-2,-4.152829E-3,4.3688272E-4,-7.911362E-4,6.913503E-3,-1.9710395E-3,6.7749026E-4,2.8175176E-3,1.304706E-3,9.918213E-5,-2.774908E-3,-2.3444495E-6,1.4618124E-3,-2.3760796E-4,8.2472566E-4,5.4694177E-4,-1.2780905E-3,-1.9533874E-3,-4.5108903E-4,1.78957E-4,5.884946E-4],"categories":[],"categories_nodes":[],"categories_segments":[],"categories_sizes":[],"default_left":[0,0,0,0,0,0,1,0,0,0,0,0,0,0,0,0,0,0,0,0,0,0,0],"id":20,"left_children":[1,3,-1,-1,5,7,9,11,13,-1,15,17,19,-1,21,-1,-1,-1,-1,-1,-1,-1,-1],"loss_changes":[6.3614543E-3,3.8681328E-4,0E0,0E0,2.9974573E-4,5.678615E-5,7.114562E-5,3.023057E-5,8.073923E-6,0E0,1.126278E-5,5.2860498E-5,5.195917E-5,0E0,1.8573492E-6,0E0,0E0,0E0,0E0,0E0,0E0,0E0,0E0],"parents":[2147483647,0,0,1,1,4,4,5,5,6,6,7,7,8,8,10,10,11,11,12,12,14,14],"right_children":[2,4,-1,-1,6,8,10,12,14,-1,16,18,20,-1,22,-1,-1,-1,-1,-1,-1,-1,-1],"split_conditions":[3.0689435E0,-1.1324923E0,1.727736E-2,-4.152829E-3,9.682256E-1,-1.721641E-1,1.1500672E0,-8.676694E-1,2.4797948E-1,2.8175176E-3,1.5684308E0,1.1500672E0,-1.6142686E-1,-2.3444495E-6,1.1500672E0,-2.3760796E-4,8.2472566E-4,5.4694177E-4,-1.2780905E-3,-1.9533874E-3,-4.5108903E-4,1.78957E-4,5.884946E-4],"split_indices":[4,4,0,0,4,4,0,2,4,0,4,0,2,0,0,0,0,0,0,0,0,0,0],"split_type":[0,0,0,0,0,0,0,0,0,0,0,0,0,0,0,0,0,0,0,0,0,0,0],"sum_hessian":[3.8E1,3.7E1,1E0,1E0,3.6E1,3.1E1,5E0,1.7E1,1.4E1,3E0,2E0,5E0,1.2E1,8E0,6E0,1E0,1E0,4E0,1E0,2E0,1E1,3E0,3E0],"tree_param":{"num_deleted":"0","num_feature":"6","num_nodes":"23","size_leaf_vector":"1"}},{"base_weights":[2.2236353E-3,-2.942995E-4,1.4685774E-2,-3.5299123E-3,3.337667E-4,-2.0131137E-4,2.9394866E-3,-2.2216837E-3,7.7651977E-4,-9.0632436E-4,-5.8656535E-3,-9.078979E-5,1.888622E-3,-5.5388384E-4,2.8955343E-4,4.821539E-4,-3.121698E-3,1.5151978E-4,-1.06013904E-4,-5.0187115E-5,7.092238E-4],"categories":[],"categories_nodes":[],"categories_segments":[],"categories_sizes":[],"default_left":[0,0,0,0,0,0,0,0,0,0,0,0,1,0,0,0,0,0,0,0,0],"id":21,"left_children":[1,3,-1,-1,5,7,-1,9,11,13,15,17,19,-1,-1,-1,-1,-1,-1,-1,-1],"loss_changes":[4.603164E-3,2.7772566E-4,0E0,0E0,1.8935006E-4,7.284617E-5,0E0,5.220136E-5,2.4284887E-5,1.937327E-5,1.18503885E-4,2.5254653E-6,1.1147971E-5,0E0,0E0,0E0,0E0,0E0,0E0,0E0,0E0],"parents":[2147483647,0,0,1,1,4,4,5,5,7,7,8,8,9,9,10,10,11,11,12,12],"right_children":[2,4,-1,-1,6,8,-1,10,12,14,16,18,20,-1,-1,-1,-1,-1,-1,-1,-1],"split_conditions":[3.0689435E0,-1.1324923E0,1.4685774E-2,-3.5299123E-3,2.3486974E0,-5.322872E-1,2.9394866E-3,-5.923077E-1,2.4797948E-1,-1.6142686E-1,-3.3825506E-2,-4.1224614E-1,5.4481566E-1,-5.5388384E-4,2.8955343E-4,4.821539E-4,-3.121698E-3,1.5151978E-4,-1.06013904E-4,-5.0187115E-5,7.092238E-4],"split_indices":[4,4,0,0,4,4,0,4,4,2,0,4,2,0,0,0,0,0,0,0,0],"split_type":[0,0,0,0,0,0,0,0,0,0,0,0,0,0,0,0,0,0,0,0,0],"sum_hessian":[3.8E1,3.7E1,1E0,1E0,3.6E1,3.5E1,1E0,1.1E1,2.4E1,9E0,2E0,1.4E1,1E1,6E0,3E0,1E0,1E0,4E0,1E1,2E0,8E0],"tree_param":{"num_deleted":"0","num_feature":"6","num_nodes":"21","size_leaf_vector":"1"}},{"base_weights":[1.8615631E-3,-2.7943598E-4,1.248293E-2,-3.0004263E-3,2.5362903E-4,-2.020167E-4,2.4985315E-3,-1.7971894E-3,5.7174684E-4,4.091064E-4,-3.4315586E-3,1.6794886E-4,2.1533489E-3,5.4860115E-4,-1.0033072E-3,-1.2179614E-3,5.0747396E-5,-6.256104E-5,1.8088102E-4,1.3569117E-3,1.2905002E-4],"categories":[],"categories_nodes":[],"categories_segments":[],"categories_sizes":[],"default_left":[0,0,0,0,0,0,0,0,0,0,0,0,0,0,0,0,0,0,0,0,0],"id":22,"left_children":[1,3,-1,-1,5,7,-1,9,11,13,15,17,19,-1,-1,-1,-1,-1,-1,-1,-1],"loss_changes":[3.3305609E-3,1.9946977E-4,0E0,0E0,1.3781482E-4,4.5461846E-5,0E0,4.467469E-5,1.560454E-5,3.8085418E-5,1.6523387E-5,3.5648352E-6,1.8471375E-5,0E0,0E0,0E0,0E0,0E0,0E0,0E0,0E0],"parents":[2147483647,0,0,1,1,4,4,5,5,7,7,8,8,9,9,10,10,11,11,12,12],"right_children":[2,4,-1,-1,6,8,-1,10,12,14,16,18,20,-1,-1,-1,-1,-1,-1,-1,-1],"split_conditions":[3.0689435E0,-1.1324923E0,1.248293E-2,-3.0004263E-3,2.3486974E0,-5.322872E-1,2.4985315E-3,-8.676694E-1,9.682256E-1,1.1500672E0,5.4481566E-1,6.791795E-2,1.1500672E0,5.4860115E-4,-1.0033072E-3,-1.2179614E-3,5.0747396E-5,-6.256104E-5,1.8088102E-4,1.3569117E-3,1.2905002E-4],"split_indices":[4,4,0,0,4,4,0,2,4,0,2,4,0,0,0,0,0,0,0,0,0],"split_type":[0,0,0,0,0,0,0,0,0,0,0,0,0,0,0,0,0,0,0,0,0],"sum_hessian":[3.8E1,3.7E1,1E0,1E0,3.6E1,3.5E1,1E0,1.1E1,2.4E1,5E0,6E0,2E1,4E0,4E0,1E0,5E0,1E0,1.1E1,9E0,1E0,3E0],"tree_param":{"num_deleted":"0","num_feature":"6","num_nodes":"21","size_leaf_vector":"1"}},{"base_weights":[1.609813E-3,-2.0930798E-4,1.0610461E-2,-2.5503607E-3,2.4455946E-4,-1.419319E-4,2.1237375E-3,-1.393199E-3,4.6435356E-4,-4.1968824E-4,-4.1738353E-3,1.2314887E-4,1.8045425E-3,-4.1031672E-4,4.0328802E-4,5.925179E-4,-2.4707438E-3,-7.437685E-5,1.4490756E-4,1.1533857E-3,1.00010635E-4],"categories":[],"categories_nodes":[],"categories_segments":[],"categories_sizes":[],"default_left":[0,0,0,0,0,0,0,0,0,0,0,0,0,0,0,0,0,0,0,0,0],"id":23,"left_children":[1,3,-1,-1,5,7,-1,9,11,13,15,17,19,-1,-1,-1,-1,-1,-1,-1,-1],"loss_changes":[2.402416E-3,1.4508904E-4,0E0,0E0,9.874027E-5,2.795744E-5,0E0,3.0732037E-5,1.12097405E-5,1.8561765E-5,9.119623E-5,2.9240914E-6,1.3724857E-5,0E0,0E0,0E0,0E0,0E0,0E0,0E0,0E0],"parents":[2147483647,0,0,1,1,4,4,5,5,7,7,8,8,9,9,10,10,11,11,12,12],"right_children":[2,4,-1,-1,6,8,-1,10,12,14,16,18,20,-1,-1,-1,-1,-1,-1,-1,-1],"split_conditions":[3.0689435E0,-1.1324923E0,1.0610461E-2,-2.5503607E-3,2.3486974E0,-5.322872E-1,2.1237375E-3,-5.923077E-1,9.682256E-1,-1.6142686E-1,-3.3825506E-2,1.1500672E0,1.1500672E0,-4.1031672E-4,4.0328802E-4,5.925179E-4,-2.4707438E-3,-7.437685E-5,1.4490756E-4,1.1533857E-3,1.00010635E-4],"split_indices":[4,4,0,0,4,4,0,4,4,2,0,0,0,0,0,0,0,0,0,0,0],"split_type":[0,0,0,0,0,0,0,0,0,0,0,0,0,0,0,0,0,0,0,0,0],"sum_hessian":[3.8E1,3.7E1,1E0,1E0,3.6E1,3.5E1,1E0,1.1E1,2.4E1,9E0,2E0,2E1,4E0,6E0,3E0,1E0,1E0,1E1,1E1,1E0,3E0],"tree_param":{"num_deleted":"0","num_feature":"6","num_nodes":"21","size_leaf_vector":"1"}},{"base_weights":[1.373586E-3,-1.7252564E-4,9.018875E-3,-2.167806E-3,2.1340718E-4,-1.1495418E-4,1.8051625E-3,-7.1707094E-4,7.7581406E-4,5.460637E-4,-1.2248755E-3,-3.7150385E-5,1.1142167E-3,-5.2145723E-4,5.4222107E-4,-1.3421417E-3,-1.3235552E-4,1.6011894E-4,5.9899094E-4],"categories":[],"categories_nodes":[],"categories_segments":[],"categories_sizes":[],"default_left":[0,0,0,0,0,0,0,0,1,0,0,0,0,0,0,0,0,0,0],"id":24,"left_children":[1,3,-1,-1,5,7,-1,9,11,13,15,-1,17,-1,-1,-1,-1,-1,-1],"loss_changes":[1.7351059E-3,1.04984734E-4,0E0,0E0,7.120424E-5,1.9864789E-5,0E0,1.478022E-5,4.7046306E-6,2.331016E-5,3.876471E-5,0E0,4.5689003E-6,0E0,0E0,0E0,0E0,0E0,0E0],"parents":[2147483647,0,0,1,1,4,4,5,5,7,7,8,8,9,9,10,10,12,12],"right_children":[2,4,-1,-1,6,8,-1,10,12,14,16,-1,18,-1,-1,-1,-1,-1,-1],"split_conditions":[3.0689435E0,-1.1324923E0,9.018875E-3,-2.167806E-3,2.3486974E0,7.897436E-3,1.8051625E-3,-8.676694E-1,5.4481566E-1,-1.0724717E0,-1.6142686E-1,-3.7150385E-5,9.682256E-1,-5.2145723E-4,5.4222107E-4,-1.3421417E-3,-1.3235552E-4,1.6011894E-4,5.9899094E-4],"split_indices":[4,4,0,0,4,4,0,2,2,4,2,0,4,0,0,0,0,0,0],"split_type":[0,0,0,0,0,0,0,0,0,0,0,0,0,0,0,0,0,0,0],"sum_hessian":[3.8E1,3.7E1,1E0,1E0,3.6E1,3.5E1,1E0,2.1E1,1.4E1,6E0,1.5E1,4E0,1E1,2E0,4E0,2E0,1.3E1,7E0,3E0],"tree_param":{"num_deleted":"0","num_feature":"6","num_nodes":"19","size_leaf_vector":"1"}},{"base_weights":[1.1646855E-3,-1.4958413E-4,7.6660397E-3,-1.842633E-3,1.7837898E-4,-1.00808014E-4,1.5343666E-3,-1.0139942E-3,3.4155368E-4,-1.7893314E-4,-3.459533E-3,1.2995515E-4,1.1619568E-3,9.881258E-5,-7.1305636E-4,5.234957E-4,-2.0802857E-3,-4.99151E-5,1.2434396E-4,8.905292E-4,-9.530783E-6],"categories":[],"categories_nodes":[],"categories_segments":[],"categories_sizes":[],"default_left":[0,0,0,0,0,0,0,0,0,0,0,0,0,0,0,0,0,0,0,0,0],"id":25,"left_children":[1,3,-1,-1,5,7,-1,9,11,13,15,17,19,-1,-1,-1,-1,-1,-1,-1,-1],"loss_changes":[1.2539063E-3,7.577806E-5,0E0,0E0,5.150589E-5,1.4888843E-5,0E0,2.3887067E-5,4.1889E-6,1.1955096E-5,6.635346E-5,1.8395926E-6,1.0876477E-5,0E0,0E0,0E0,0E0,0E0,0E0,0E0,0E0],"parents":[2147483647,0,0,1,1,4,4,5,5,7,7,8,8,9,9,10,10,11,11,12,12],"right_children":[2,4,-1,-1,6,8,-1,10,12,14,16,18,20,-1,-1,-1,-1,-1,-1,-1,-1],"split_conditions":[3.0689435E0,-1.1324923E0,7.6660397E-3,-1.842633E-3,2.3486974E0,-5.322872E-1,1.5343666E-3,-5.923077E-1,9.682256E-1,1.1500672E0,-3.3825506E-2,1.1500672E0,1.1500672E0,9.881258E-5,-7.1305636E-4,5.234957E-4,-2.0802857E-3,-4.99151E-5,1.2434396E-4,8.905292E-4,-9.530783E-6],"split_indices":[4,4,0,0,4,4,0,4,4,0,0,0,0,0,0,0,0,0,0,0,0],"split_type":[0,0,0,0,0,0,0,0,0,0,0,0,0,0,0,0,0,0,0,0,0],"sum_hessian":[3.8E1,3.7E1,1E0,1E0,3.6E1,3.5E1,1E0,1.1E1,2.4E1,9E0,2E0,2E1,4E0,8E0,1E0,1E0,1E0,1E1,1E1,1E0,3E0],"tree_param":{"num_deleted":"0","num_feature":"6","num_nodes":"21","size_leaf_vector":"1"}},{"base_weights":[9.727371E-4,-1.4484399E-4,6.516123E-3,-1.5662402E-3,1.3344674E-4,-1.0436442E-4,1.3041974E-3,-8.9071196E-4,2.7725697E-4,5.0820905E-4,-1.9625425E-3,9.445349E-5,9.895802E-4,4.2539122E-4,-6.0608983E-4,-1.3775826E-3,-2.2769572E-4,1.6815664E-4,-1.4454478E-5,7.569552E-4,-7.3850156E-6],"categories":[],"categories_nodes":[],"categories_segments":[],"categories_sizes":[],"default_left":[0,0,0,0,0,0,0,0,0,0,0,0,0,0,0,0,0,0,0,0,0],"id":26,"left_children":[1,3,-1,-1,5,7,-1,9,11,13,15,17,19,-1,-1,-1,-1,-1,-1,-1,-1],"loss_changes":[9.074471E-4,5.4375185E-5,0E0,0E0,3.753167E-5,1.1050089E-5,0E0,1.899026E-5,3.1619097E-6,1.6666763E-5,1.86672E-5,1.4230393E-6,7.838993E-6,0E0,0E0,0E0,0E0,0E0,0E0,0E0,0E0],"parents":[2147483647,0,0,1,1,4,4,5,5,7,7,8,8,9,9,10,10,11,11,12,12],"right_children":[2,4,-1,-1,6,8,-1,10,12,14,16,18,20,-1,-1,-1,-1,-1,-1,-1,-1],"split_conditions":[3.0689435E0,-1.1324923E0,6.516123E-3,-1.5662402E-3,2.3486974E0,-5.322872E-1,1.3041974E-3,-8.676694E-1,9.682256E-1,1.1500672E0,-1.6142686E-1,-4.1224614E-1,1.1500672E0,4.2539122E-4,-6.0608983E-4,-1.3775826E-3,-2.2769572E-4,1.6815664E-4,-1.4454478E-5,7.569552E-4,-7.3850156E-6],"split_indices":[4,4,0,0,4,4,0,2,4,0,2,4,0,0,0,0,0,0,0,0,0],"split_type":[0,0,0,0,0,0,0,0,0,0,0,0,0,0,0,0,0,0,0,0,0],"sum_hessian":[3.8E1,3.7E1,1E0,1E0,3.6E1,3.5E1,1E0,1.1E1,2.4E1,5E0,6E0,2E1,4E0,4E0,1E0,1E0,5E0,4E0,1.6E1,1E0,3E0],"tree_param":{"num_deleted":"0","num_feature":"6","num_nodes":"21","size_leaf_vector":"1"}},{"base_weights":[8.186713E-4,-1.3149099E-4,5.538726E-3,-1.3313056E-3,1.0483007E-4,-9.754962E-5,1.1085749E-3,-7.7231723E-4,2.3024082E-4,-9.0146066E-5,-2.7887821E-3,-4.6197572E-5,5.862713E-4,-2.5081466E-4,3.713161E-4,4.7913197E-4,-1.734084E-3,1.277876E-4,-7.698428E-5,-9.7560885E-5,2.4748643E-4],"categories":[],"categories_nodes":[],"categories_segments":[],"categories_sizes":[],"default_left":[0,0,0,0,0,0,0,0,0,0,0,0,1,0,0,0,0,0,0,0,0],"id":27,"left_children":[1,3,-1,-1,5,7,-1,9,11,13,15,17,19,-1,-1,-1,-1,-1,-1,-1,-1],"loss_changes":[6.562402E-4,3.9135688E-5,0E0,0E0,2.7245707E-5,8.140385E-6,0E0,1.6255493E-5,2.4875965E-6,1.0939386E-5,4.8592854E-5,1.5995503E-6,2.6613702E-6,0E0,0E0,0E0,0E0,0E0,0E0,0E0,0E0],"parents":[2147483647,0,0,1,1,4,4,5,5,7,7,8,8,9,9,10,10,11,11,12,12],"right_children":[2,4,-1,-1,6,8,-1,10,12,14,16,18,20,-1,-1,-1,-1,-1,-1,-1,-1],"split_conditions":[3.0689435E0,-1.1324923E0,5.538726E-3,-1.3313056E-3,2.3486974E0,-5.322872E-1,1.1085749E-3,-5.923077E-1,2.4797948E-1,-1.6142686E-1,-3.3825506E-2,-4.1224614E-1,5.4481566E-1,-2.5081466E-4,3.713161E-4,4.7913197E-4,-1.734084E-3,1.277876E-4,-7.698428E-5,-9.7560885E-5,2.4748643E-4],"split_indices":[4,4,0,0,4,4,0,4,4,2,0,4,2,0,0,0,0,0,0,0,0],"split_type":[0,0,0,0,0,0,0,0,0,0,0,0,0,0,0,0,0,0,0,0,0],"sum_hessian":[3.8E1,3.7E1,1E0,1E0,3.6E1,3.5E1,1E0,1.1E1,2.4E1,9E0,2E0,1.4E1,1E1,6E0,3E0,1E0,1E0,4E0,1E1,2E0,8E0],"tree_param":{"num_deleted":"0","num_feature":"6","num_nodes":"21","size_leaf_vector":"1"}},{"base_weights":[6.854412E-4,-1.2246559E-4,4.707885E-3,-1.1316062E-3,7.8117526E-5,-1.7740446E-4,2.230525E-3,-8.841717E-5,-4.6709777E-4,8.800824E-4,9.4227795E-4,-2.174899E-4,6.062866E-4,4.3587686E-4,-3.9839746E-5,1.3458559E-4,-1.1653855E-4],"categories":[],"categories_nodes":[],"categories_segments":[],"categories_sizes":[],"default_left":[0,0,0,0,0,0,0,0,0,0,0,0,0,0,0,0,0],"id":28,"left_children":[1,3,-1,-1,5,7,9,11,-1,13,-1,15,-1,-1,-1,-1,-1],"loss_changes":[4.7478388E-4,2.8112147E-5,0E0,0E0,2.074524E-5,4.0363725E-6,2.1535034E-6,9.424198E-6,0E0,1.9336053E-6,0E0,3.818618E-6,0E0,0E0,0E0,0E0,0E0],"parents":[2147483647,0,0,1,1,4,4,5,5,6,6,7,7,9,9,11,11],"right_children":[2,4,-1,-1,6,8,10,12,-1,14,-1,16,-1,-1,-1,-1,-1],"split_conditions":[3.0689435E0,-1.1324923E0,4.707885E-3,-1.1316062E-3,1.5684308E0,1.1482872E0,2.3486974E0,9.682256E-1,-4.6709777E-4,2.3001444E0,9.4227795E-4,-8.676694E-1,6.062866E-4,4.3587686E-4,-3.9839746E-5,1.3458559E-4,-1.1653855E-4],"split_indices":[4,4,0,0,4,4,4,4,0,0,0,2,0,0,0,0,0],"split_type":[0,0,0,0,0,0,0,0,0,0,0,0,0,0,0,0,0],"sum_hessian":[3.8E1,3.7E1,1E0,1E0,3.6E1,3.3E1,3E0,3.2E1,1E0,2E0,1E0,3.1E1,1E0,1E0,1E0,6E0,2.5E1],"tree_param":{"num_deleted":"0","num_feature":"6","num_nodes":"17","size_leaf_vector":"1"}},{"base_weights":[6.0989766E-4,-7.610729E-5,4.001713E-3,-2.3891777E-3,1.9041811E-4,-9.61867E-4,-1.0480881E-3,1.5130384E-3,-1.354012E-4,2.6106836E-5,-4.977465E-4,9.6280576E-4,6.9542724E-4,-1.4472008E-3,2.6972915E-4,-4.6645405E-4,1.4564514E-3,-1.1158348E-3,-4.4858456E-4,1.6971609E-4,3.705025E-4,1.456976E-4,8.009434E-4,3.1646492E-4,-6.911039E-4,9.1152535E-5,-3.9703847E-4],"categories":[],"categories_nodes":[],"categories_segments":[],"categories_sizes":[],"default_left":[0,0,0,0,1,0,0,0,0,0,0,0,0,0,0,0,0,0,0,0,0,0,0,0,0,0,0],"id":29,"left_children":[1,3,-1,5,7,-1,9,11,13,-1,-1,-1,15,17,19,-1,21,-1,23,25,-1,-1,-1,-1,-1,-1,-1],"loss_changes":[3.415732E-4,2.388164E-5,0E0,1.0225212E-6,1.5287598E-5,0E0,2.2252698E-6,7.4766067E-6,1.5802398E-5,0E0,0E0,0E0,1.25396355E-5,1.4215241E-5,2.010831E-6,0E0,4.5929874E-6,0E0,1.9164565E-5,4.808139E-6,0E0,0E0,0E0,0E0,0E0,0E0,0E0],"parents":[2147483647,0,0,1,1,3,3,4,4,6,6,7,7,8,8,12,12,13,13,14,14,16,16,18,18,19,19],"right_children":[2,4,-1,6,8,-1,10,12,14,-1,-1,-1,16,18,20,-1,22,-1,24,26,-1,-1,-1,-1,-1,-1,-1],"split_conditions":[3.0689435E0,-1.0724717E0,4.001713E-3,-3.3825506E-2,-8.676694E-1,-9.61867E-4,1.1500672E0,-1.0124513E0,-5.322872E-1,2.6106836E-5,-4.977465E-4,9.6280576E-4,-3.3825506E-2,-1.6142686E-1,1.5684308E0,-4.6645405E-4,2.3486974E0,-1.1158348E-3,-3.3825506E-2,1.1482872E0,3.705025E-4,1.456976E-4,8.009434E-4,3.1646492E-4,-6.911039E-4,9.1152535E-5,-3.9703847E-4],"split_indices":[4,4,0,0,2,0,0,4,4,0,0,0,0,2,4,0,4,0,0,4,0,0,0,0,0,0,0],"split_type":[0,0,0,0,0,0,0,0,0,0,0,0,0,0,0,0,0,0,0,0,0,0,0,0,0,0,0],"sum_hessian":[3.8E1,3.7E1,1E0,3E0,3.4E1,1E0,2E0,6E0,2.8E1,1E0,1E0,1E0,5E0,6E0,2.2E1,1E0,4E0,1E0,5E0,2.1E1,1E0,3E0,1E0,3E0,2E0,2E1,1E0],"tree_param":{"num_deleted":"0","num_feature":"6","num_nodes":"27","size_leaf_vector":"1"}},{"base_weights":[4.9322384E-4,-9.054573E-5,3.4014704E-3,-6.092459E-4,1.3378689E-4,1.2652193E-3,-1.4393083E-4,8.1837777E-4,5.6678057E-4,-1.5170813E-3,1.364565E-4,-3.9648416E-4,1.2087822E-3,-7.982612E-4,3.9720537E-5,4.670501E-4,-5.4742977E-5,1.1290312E-4,6.8078045E-4,-5.1970483E-4,8.505464E-5],"categories":[],"categories_nodes":[],"categories_segments":[],"categories_sizes":[],"default_left":[0,0,0,0,1,0,0,0,0,0,0,0,0,0,0,0,0,0,0,0,0],"id":30,"left_children":[1,3,-1,-1,5,7,9,-1,11,13,15,-1,17,-1,-1,-1,19,-1,-1,-1,-1],"loss_changes":[2.4793512E-4,1.6811831E-5,0E0,0E0,1.11797635E-5,5.6051404E-6,1.1372421E-5,0E0,8.871657E-6,9.785608E-6,6.874609E-6,0E0,3.559921E-6,0E0,0E0,0E0,1.3542832E-5,0E0,0E0,0E0,0E0],"parents":[2147483647,0,0,1,1,4,4,5,5,6,6,8,8,9,9,10,10,12,12,16,16],"right_children":[2,4,-1,-1,6,8,10,-1,12,14,16,-1,18,-1,-1,-1,20,-1,-1,-1,-1],"split_conditions":[3.0689435E0,-1.0724717E0,3.4014704E-3,-6.092459E-4,-8.676694E-1,-1.0124513E0,-1.6142686E-1,8.1837777E-4,-3.3825506E-2,-2.9220513E-1,-9.524307E-1,-3.9648416E-4,2.3486974E0,-7.982612E-4,3.9720537E-5,4.670501E-4,-5.322872E-1,1.1290312E-4,6.8078045E-4,-5.1970483E-4,8.505464E-5],"split_indices":[4,4,0,0,2,4,2,0,0,4,4,0,4,0,0,0,4,0,0,0,0],"split_type":[0,0,0,0,0,0,0,0,0,0,0,0,0,0,0,0,0,0,0,0,0],"sum_hessian":[3.8E1,3.7E1,1E0,3E0,3.4E1,6E0,2.8E1,1E0,5E0,4E0,2.4E1,1E0,4E0,2E0,2E0,2E0,2.2E1,3E0,1E0,3E0,1.9E1],"tree_param":{"num_deleted":"0","num_feature":"6","num_nodes":"21","size_leaf_vector":"1"}},{"base_weights":[4.2938115E-4,-6.656114E-5,2.8912784E-3,-7.262081E-4,6.248822E-5,-9.045531E-5,4.0406585E-4,-2.2436634E-5,-3.5026076E-4,-1.2499467E-4,4.889131E-4,1.108953E-4,-7.6008306E-5],"categories":[],"categories_nodes":[],"categories_segments":[],"categories_sizes":[],"default_left":[0,0,0,0,0,0,0,0,0,0,0,0,0],"id":31,"left_children":[1,3,-1,-1,5,7,-1,9,-1,11,-1,-1,-1],"loss_changes":[1.7874443E-4,1.1695637E-5,0E0,0E0,7.390126E-6,2.4646984E-6,0E0,5.7952557E-6,0E0,2.1255223E-6,0E0,0E0,0E0],"parents":[2147483647,0,0,1,1,4,4,5,5,7,7,9,9],"right_children":[2,4,-1,-1,6,8,-1,10,-1,12,-1,-1,-1],"split_conditions":[3.0689435E0,-1.1324923E0,2.8912784E-3,-7.262081E-4,1.5684308E0,1.1482872E0,4.0406585E-4,9.682256E-1,-3.5026076E-4,-8.676694E-1,4.889131E-4,1.108953E-4,-7.6008306E-5],"split_indices":[4,4,0,0,4,4,0,4,0,2,0,0,0],"split_type":[0,0,0,0,0,0,0,0,0,0,0,0,0],"sum_hessian":[3.8E1,3.7E1,1E0,1E0,3.6E1,3.3E1,3E0,3.2E1,1E0,3.1E1,1E0,6E0,2.5E1],"tree_param":{"num_deleted":"0","num_feature":"6","num_nodes":"13","size_leaf_vector":"1"}},{"base_weights":[3.7093804E-4,-5.0461607E-5,2.4576187E-3,-1.4477521E-3,1.10670495E-4,-6.1727467E-4,-5.5861473E-4,1.2345174E-5,5.1805977E-4,9.695292E-5,-3.4832954E-4,7.196426E-4,-1.0594924E-4,6.789923E-4,-2.3210049E-4,-1.1087855E-3,1.3896942E-4,-3.5364032E-4,1.4292002E-4,-8.1732275E-4,-7.2233684E-5,3.888488E-4,-5.4032907E-6],"categories":[],"categories_nodes":[],"categories_segments":[],"categories_sizes":[],"default_left":[0,0,0,0,0,0,0,0,0,0,0,0,1,0,0,0,0,0,0,0,0,0,0],"id":32,"left_children":[1,3,-1,5,7,-1,9,11,-1,-1,-1,13,15,-1,17,19,21,-1,-1,-1,-1,-1,-1],"loss_changes":[1.2895031E-4,8.715861E-6,0E0,1.0194944E-6,5.540634E-6,0E0,1.969034E-6,2.9210032E-6,0E0,0E0,0E0,7.871177E-6,7.5224866E-6,0E0,3.2445325E-6,7.758251E-6,4.564761E-6,0E0,0E0,0E0,0E0,0E0,0E0],"parents":[2147483647,0,0,1,1,3,3,4,4,6,6,7,7,11,11,12,12,14,14,15,15,16,16],"right_children":[2,4,-1,6,8,-1,10,12,-1,-1,-1,14,16,-1,18,20,22,-1,-1,-1,-1,-1,-1],"split_conditions":[3.0689435E0,-1.0724717E0,2.4576187E-3,-3.3825506E-2,2.3486974E0,-6.1727467E-4,1.1500672E0,-8.676694E-1,5.1805977E-4,9.695292E-5,-3.4832954E-4,-1.0124513E0,-1.6142686E-1,6.789923E-4,-3.3825506E-2,-3.3825506E-2,-9.524307E-1,-3.5364032E-4,1.4292002E-4,-8.1732275E-4,-7.2233684E-5,3.888488E-4,-5.4032907E-6],"split_indices":[4,4,0,0,4,0,0,2,0,0,0,4,2,0,0,0,4,0,0,0,0,0,0],"split_type":[0,0,0,0,0,0,0,0,0,0,0,0,0,0,0,0,0,0,0,0,0,0,0],"sum_hessian":[3.8E1,3.7E1,1E0,3E0,3.4E1,1E0,2E0,3.3E1,1E0,1E0,1E0,4E0,2.9E1,1E0,3E0,5E0,2.4E1,1E0,2E0,1E0,4E0,2E0,2.2E1],"tree_param":{"num_deleted":"0","num_feature":"6","num_nodes":"23","size_leaf_vector":"1"}},{"base_weights":[3.127364E-4,-4.5520694E-5,2.088976E-3,-3.6917478E-4,9.1215545E-5,7.548753E-6,4.4038298E-4,5.974293E-4,-9.101629E-5,5.771399E-4,-2.1511316E-4,-9.4951905E-4,4.8951806E-5,-3.0058622E-4,1.1434555E-4,-6.9472793E-4,-1.0075569E-4],"categories":[],"categories_nodes":[],"categories_segments":[],"categories_sizes":[],"default_left":[0,0,0,0,0,0,0,0,0,0,0,0,0,0,0,0,0],"id":33,"left_children":[1,3,-1,-1,5,7,-1,9,11,-1,13,15,-1,-1,-1,-1,-1],"loss_changes":[9.323817E-5,6.269803E-6,0E0,0E0,4.020442E-6,2.0311902E-6,0E0,5.8024953E-6,6.7015935E-6,0E0,2.2585593E-6,5.0911613E-6,0E0,0E0,0E0,0E0,0E0],"parents":[2147483647,0,0,1,1,4,4,5,5,7,7,8,8,10,10,11,11],"right_children":[2,4,-1,-1,6,8,-1,10,12,-1,14,16,-1,-1,-1,-1,-1],"split_conditions":[3.0689435E0,-1.0724717E0,2.088976E-3,-3.6917478E-4,2.3486974E0,-8.676694E-1,4.4038298E-4,-1.0124513E0,-5.322872E-1,5.771399E-4,-3.3825506E-2,-1.6142686E-1,4.8951806E-5,-3.0058622E-4,1.1434555E-4,-6.9472793E-4,-1.0075569E-4],"split_indices":[4,4,0,0,4,2,0,4,4,0,0,2,0,0,0,0,0],"split_type":[0,0,0,0,0,0,0,0,0,0,0,0,0,0,0,0,0],"sum_hessian":[3.8E1,3.7E1,1E0,3E0,3.4E1,3.3E1,1E0,4E0,2.9E1,1E0,3E0,6E0,2.3E1,1E0,2E0,1E0,5E0],"tree_param":{"num_deleted":"0","num_feature":"6","num_nodes":"17","size_leaf_vector":"1"}},{"base_weights":[2.651994E-4,-3.933436E-5,1.7756225E-3,-4.6930613E-4,4.416221E-5,-2.3924642E-5,3.7429333E-4,-1.8365275E-4,2.1193823E-4,2.2764206E-4,-4.8590623E-4,6.3455105E-4,-6.2823296E-5,-5.622421E-5,2.6912394E-4,1.80223E-4,-3.1068324E-4,5.865097E-6,5.564332E-4,1.880765E-4,-1.3439656E-4],"categories":[],"categories_nodes":[],"categories_segments":[],"categories_sizes":[],"default_left":[0,0,0,0,0,0,0,0,0,0,0,0,0,0,0,0,0,0,0,0,0],"id":34,"left_children":[1,3,-1,-1,5,7,-1,9,11,13,15,17,19,-1,-1,-1,-1,-1,-1,-1,-1],"loss_changes":[6.737889E-5,4.9077726E-6,0E0,0E0,3.061678E-6,1.3951844E-6,0E0,2.845549E-6,1.7816308E-6,2.9466669E-6,8.3875075E-6,4.4663793E-6,2.9375112E-6,0E0,0E0,0E0,0E0,0E0,0E0,0E0,0E0],"parents":[2147483647,0,0,1,1,4,4,5,5,7,7,8,8,9,9,10,10,11,11,12,12],"right_children":[2,4,-1,-1,6,8,-1,10,12,14,16,18,20,-1,-1,-1,-1,-1,-1,-1,-1],"split_conditions":[3.0689435E0,-1.1324923E0,1.7756225E-3,-4.6930613E-4,2.3486974E0,7.897436E-3,3.7429333E-4,-5.923077E-1,1.2510582E0,-1.6142686E-1,-3.3825506E-2,4.28041E-1,5.4808205E-1,-5.622421E-5,2.6912394E-4,1.80223E-4,-3.1068324E-4,5.865097E-6,5.564332E-4,1.880765E-4,-1.3439656E-4],"split_indices":[4,4,0,0,4,4,0,4,2,2,0,4,4,0,0,0,0,0,0,0,0],"split_type":[0,0,0,0,0,0,0,0,0,0,0,0,0,0,0,0,0,0,0,0,0],"sum_hessian":[3.8E1,3.7E1,1E0,1E0,3.6E1,3.5E1,1E0,2.1E1,1.4E1,9E0,1.2E1,5E0,9E0,6E0,3E0,4E0,8E0,4E0,1E0,3E0,6E0],"tree_param":{"num_deleted":"0","num_feature":"6","num_nodes":"21","size_leaf_vector":"1"}},{"base_weights":[2.4663025E-4,-1.16621195E-5,1.5092612E-3,-4.478647E-4,2.0688772E-4,4.8436722E-4,-1.0910556E-3,6.2857354E-5,6.765127E-4,8.9092256E-4,-2.3226143E-4,-6.5398816E-4,-3.6476055E-4,-2.6010384E-4,3.8010423E-4,3.18861E-4,-6.41346E-5,4.3016672E-4,5.098184E-5,8.190274E-4,-1.8215576E-3,1.01673606E-4,-5.816817E-4,-2.790928E-5,6.637573E-4,-2.8406383E-4,2.5520325E-4,-2.4704935E-4,2.6999117E-4,2.3925306E-5,4.5552853E-4,3.8123134E-4,-1.2009323E-3,-3.412217E-5,1.9266606E-4,2.5178195E-4,-5.8400634E-5],"categories":[],"categories_nodes":[],"categories_segments":[],"categories_sizes":[],"default_left":[0,0,0,0,0,0,0,0,1,0,0,0,0,0,0,0,0,0,0,0,0,0,0,0,0,0,0,0,0,0,0,0,0,0,0,0,0],"id":35,"left_children":[1,3,-1,5,7,9,11,13,15,17,-1,-1,19,21,23,-1,25,-1,27,29,31,33,-1,-1,35,-1,-1,-1,-1,-1,-1,-1,-1,-1,-1,-1,-1],"loss_changes":[4.8252252E-5,3.715274E-6,0E0,8.323312E-6,1.7161229E-6,3.759831E-6,5.531766E-6,2.2504935E-6,1.7850937E-6,2.2071963E-6,0E0,0E0,1.1839139E-5,6.878151E-6,1.5380188E-6,0E0,3.2281257E-6,0E0,2.9683936E-6,1.947106E-6,2.532524E-5,1.2374603E-6,0E0,0E0,1.2180517E-6,0E0,0E0,0E0,0E0,0E0,0E0,0E0,0E0,0E0,0E0,0E0,0E0],"parents":[2147483647,0,0,1,1,3,3,4,4,5,5,6,6,7,7,8,8,9,9,12,12,13,13,14,14,16,16,18,18,19,19,20,20,21,21,24,24],"right_children":[2,4,-1,6,8,10,12,14,16,18,-1,-1,20,22,24,-1,26,-1,28,30,32,34,-1,-1,36,-1,-1,-1,-1,-1,-1,-1,-1,-1,-1,-1,-1],"split_conditions":[3.0689435E0,-5.322872E-1,1.5092612E-3,-8.676694E-1,9.682256E-1,1.1500672E0,-1.6142686E-1,1.1500672E0,1.1500672E0,-1.0124513E0,-2.3226143E-4,-6.5398816E-4,-3.3825506E-2,5.4808205E-1,-1.6142686E-1,3.18861E-4,1.5684308E0,4.3016672E-4,-3.3825506E-2,-6.523282E-1,-1.0124513E0,1.2793846E-1,-5.816817E-4,-2.790928E-5,1.2510582E0,-2.8406383E-4,2.5520325E-4,-2.4704935E-4,2.6999117E-4,2.3925306E-5,4.5552853E-4,3.8123134E-4,-1.2009323E-3,-3.412217E-5,1.9266606E-4,2.5178195E-4,-5.8400634E-5],"split_indices":[4,4,0,2,4,0,2,0,0,4,0,0,0,4,2,0,4,0,0,4,4,4,0,0,2,0,0,0,0,0,0,0,0,0,0,0,0],"split_type":[0,0,0,0,0,0,0,0,0,0,0,0,0,0,0,0,0,0,0,0,0,0,0,0,0,0,0,0,0,0,0,0,0,0,0,0,0],"sum_hessian":[3.8E1,3.7E1,1E0,1.2E1,2.5E1,5E0,7E0,2E1,5E0,4E0,1E0,2E0,5E0,1E1,1E1,3E0,2E0,2E0,2E0,3E0,2E0,9E0,1E0,4E0,6E0,1E0,1E0,1E0,1E0,2E0,1E0,1E0,1E0,7E0,2E0,5E0,1E0],"tree_param":{"num_deleted":"0","num_feature":"6","num_nodes":"37","size_leaf_vector":"1"}},{"base_weights":[1.9233197E-4,-2.7673808E-5,1.2828828E-3,-3.7300127E-4,1.460543E-4,3.758669E-4,-8.8802725E-4,7.981777E-5,2.7029516E-4,7.142782E-4,-1.9742847E-4,-5.231917E-4,-3.120502E-4,-1.5404225E-4,4.612E-5,3.4414532E-4,4.331271E-5,6.931722E-4,-1.54833E-3,-2.099991E-4,2.2948981E-4,1.9133091E-5,3.872037E-4,3.2404662E-4,-1.0207952E-3],"categories":[],"categories_nodes":[],"categories_segments":[],"categories_sizes":[],"default_left":[0,0,0,0,0,0,0,1,0,0,0,0,0,0,0,0,0,0,0,0,0,0,0,0,0],"id":36,"left_children":[1,3,-1,5,7,9,11,13,-1,15,-1,-1,17,-1,-1,-1,19,21,23,-1,-1,-1,-1,-1,-1],"loss_changes":[3.5159494E-5,2.3342159E-6,0E0,5.347705E-6,1.2281872E-6,2.5694892E-6,3.3998313E-6,1.1752759E-6,0E0,1.402527E-6,0E0,0E0,8.529676E-6,0E0,0E0,0E0,2.1447095E-6,1.4219561E-6,1.8297553E-5,0E0,0E0,0E0,0E0,0E0,0E0],"parents":[2147483647,0,0,1,1,3,3,4,4,5,5,6,6,7,7,9,9,12,12,16,16,17,17,18,18],"right_children":[2,4,-1,6,8,10,12,14,-1,16,-1,-1,18,-1,-1,-1,20,22,24,-1,-1,-1,-1,-1,-1],"split_conditions":[3.0689435E0,-5.322872E-1,1.2828828E-3,-8.676694E-1,2.3486974E0,1.1500672E0,-1.6142686E-1,-8.676694E-1,2.7029516E-4,-1.0124513E0,-1.9742847E-4,-5.231917E-4,-3.3825506E-2,-1.5404225E-4,4.612E-5,3.4414532E-4,-3.3825506E-2,-6.523282E-1,-1.0124513E0,-2.099991E-4,2.2948981E-4,1.9133091E-5,3.872037E-4,3.2404662E-4,-1.0207952E-3],"split_indices":[4,4,0,2,4,0,2,2,0,4,0,0,0,0,0,0,0,4,4,0,0,0,0,0,0],"split_type":[0,0,0,0,0,0,0,0,0,0,0,0,0,0,0,0,0,0,0,0,0,0,0,0,0],"sum_hessian":[3.8E1,3.7E1,1E0,1.2E1,2.5E1,5E0,7E0,2.4E1,1E0,4E0,1E0,2E0,5E0,2E0,2.2E1,2E0,2E0,3E0,2E0,1E0,1E0,2E0,1E0,1E0,1E0],"tree_param":{"num_deleted":"0","num_feature":"6","num_nodes":"25","size_leaf_vector":"1"}},{"base_weights":[1.5513561E-4,-3.2093965E-5,1.090479E-3,-1.2413118E-4,4.7945976E-4,-2.6406755E-4,1.4276306E-4,3.7450792E-4,7.600784E-5,-1.17492105E-4,-5.013228E-4,-2.2956136E-5,8.261204E-4,-2.4837255E-4,1.5268923E-4,1.7181874E-4,-3.1358705E-4,4.2829514E-4,-5.654097E-5,-4.1854978E-4,-2.2909642E-5],"categories":[],"categories_nodes":[],"categories_segments":[],"categories_sizes":[],"default_left":[0,0,0,0,0,0,0,0,0,0,0,0,0,0,0,0,0,0,0,0,0],"id":37,"left_children":[1,3,-1,5,7,9,11,-1,13,15,-1,-1,17,-1,-1,-1,19,-1,-1,-1,-1],"loss_changes":[2.5525953E-5,1.8486313E-6,0E0,1.27019E-6,1.7663998E-6,4.3407845E-6,1.8614029E-6,0E0,2.3781568E-6,3.0219271E-6,0E0,0E0,2.099989E-6,0E0,0E0,0E0,4.255213E-6,0E0,0E0,0E0,0E0],"parents":[2147483647,0,0,1,1,3,3,4,4,5,5,6,6,8,8,9,9,12,12,16,16],"right_children":[2,4,-1,6,8,10,12,-1,14,16,-1,-1,18,-1,-1,-1,20,-1,-1,-1,-1],"split_conditions":[3.0689435E0,9.682256E-1,1.090479E-3,1.1500672E0,1.1500672E0,5.4808205E-1,4.28041E-1,3.7450792E-4,1.5684308E0,-8.676694E-1,-5.013228E-4,-2.2956136E-5,1.2510582E0,-2.4837255E-4,1.5268923E-4,1.7181874E-4,-1.6142686E-1,4.2829514E-4,-5.654097E-5,-4.1854978E-4,-2.2909642E-5],"split_indices":[4,4,0,0,0,4,4,0,4,2,0,0,2,0,0,0,2,0,0,0,0],"split_type":[0,0,0,0,0,0,0,0,0,0,0,0,0,0,0,0,0,0,0,0,0],"sum_hessian":[3.8E1,3.7E1,1E0,3.2E1,5E0,2.1E1,1.1E1,1E0,4E0,2E1,1E0,9E0,2E0,1E0,3E0,4E0,1.6E1,1E0,1E0,2E0,1.4E1],"tree_param":{"num_deleted":"0","num_feature":"6","num_nodes":"21","size_leaf_vector":"1"}},{"base_weights":[1.3288014E-4,-6.421676E-5,2.5194485E-3,-2.8877534E-4,1.6536713E-5,2.0685197E-4,9.2689996E-4,-1.9046392E-5,-1.181523E-3,-2.8345734E-4,1.5436113E-4,3.3255818E-4,-8.6424354E-4,1.8012524E-4,-3.3484102E-4,1.305914E-4,-1.6436577E-4],"categories":[],"categories_nodes":[],"categories_segments":[],"categories_sizes":[],"default_left":[0,0,0,0,0,0,0,0,0,0,0,0,0,0,0,0,0],"id":38,"left_children":[1,3,5,7,-1,-1,-1,9,11,13,-1,-1,-1,15,-1,-1,-1],"loss_changes":[1.8506817E-5,1.0074671E-6,1.0000513E-6,3.1078948E-6,0E0,0E0,0E0,1.6977879E-6,1.4867828E-5,3.2891699E-6,0E0,0E0,0E0,1.3531379E-6,0E0,0E0,0E0],"parents":[2147483647,0,0,1,1,2,2,3,3,7,7,8,8,9,9,13,13],"right_children":[2,4,6,8,-1,-1,-1,10,12,14,-1,-1,-1,16,-1,-1,-1],"split_conditions":[2.3486974E0,-5.322872E-1,3.0689435E0,-5.923077E-1,1.6536713E-5,2.0685197E-4,9.2689996E-4,-1.6142686E-1,-3.3825506E-2,-8.676694E-1,1.5436113E-4,3.3255818E-4,-8.6424354E-4,1.1500672E0,-3.3484102E-4,1.305914E-4,-1.6436577E-4],"split_indices":[4,4,4,4,0,0,0,2,0,2,0,0,0,0,0,0,0],"split_type":[0,0,0,0,0,0,0,0,0,0,0,0,0,0,0,0,0],"sum_hessian":[3.8E1,3.6E1,2E0,1.2E1,2.4E1,1E0,1E0,1E1,2E0,7E0,3E0,1E0,1E0,5E0,2E0,4E0,1E0],"tree_param":{"num_deleted":"0","num_feature":"6","num_nodes":"17","size_leaf_vector":"1"}},{"base_weights":[1.03411E-4,-1.9389714E-5,6.424427E-4],"categories":[],"categories_nodes":[],"categories_segments":[],"categories_sizes":[],"default_left":[0,0,0],"id":39,"left_children":[1,-1,-1],"loss_changes":[1.3495256E-5,0E0,0E0],"parents":[2147483647,0,0],"right_children":[2,-1,-1],"split_conditions":[2.3486974E0,-1.9389714E-5,6.424427E-4],"split_indices":[4,0,0],"split_type":[0,0,0],"sum_hessian":[3.8E1,3.6E1,2E0],"tree_param":{"num_deleted":"0","num_feature":"6","num_nodes":"3","size_leaf_vector":"1"}},{"base_weights":[8.8361594E-5,-9.189154E-6,6.915093E-4],"categories":[],"categories_nodes":[],"categories_segments":[],"categories_sizes":[],"default_left":[0,0,0],"id":40,"left_children":[1,-1,-1],"loss_changes":[1.0357484E-5,0E0,0E0],"parents":[2147483647,0,0],"right_children":[2,-1,-1],"split_conditions":[3.0689435E0,-9.189154E-6,6.915093E-4],"split_indices":[4,0,0],"split_type":[0,0,0],"sum_hessian":[3.8E1,3.7E1,1E0],"tree_param":{"num_deleted":"0","num_feature":"6","num_nodes":"3","size_leaf_vector":"1"}},{"base_weights":[7.938422E-5,-6.4947108E-6,5.877972E-4],"categories":[],"categories_nodes":[],"categories_segments":[],"categories_sizes":[],"default_left":[0,0,0],"id":41,"left_children":[1,-1,-1],"loss_changes":[7.449937E-6,0E0,0E0],"parents":[2147483647,0,0],"right_children":[2,-1,-1],"split_conditions":[3.0689435E0,-6.4947108E-6,5.877972E-4],"split_indices":[4,0,0],"split_type":[0,0,0],"sum_hessian":[3.8E1,3.7E1,1E0],"tree_param":{"num_deleted":"0","num_feature":"6","num_nodes":"3","size_leaf_vector":"1"}},{"base_weights":[7.042976E-5,-4.610106E-6,4.9960613E-4],"categories":[],"categories_nodes":[],"categories_segments":[],"categories_sizes":[],"default_left":[0,0,0],"id":42,"left_children":[1,-1,-1],"loss_changes":[5.362326E-6,0E0,0E0],"parents":[2147483647,0,0],"right_children":[2,-1,-1],"split_conditions":[3.0689435E0,-4.610106E-6,4.9960613E-4],"split_indices":[4,0,0],"split_type":[0,0,0],"sum_hessian":[3.8E1,3.7E1,1E0],"tree_param":{"num_deleted":"0","num_feature":"6","num_nodes":"3","size_leaf_vector":"1"}},{"base_weights":[6.198272E-5,-3.2657072E-6,4.2464735E-4],"categories":[],"categories_nodes":[],"categories_segments":[],"categories_sizes":[],"default_left":[0,0,0],"id":43,"left_children":[1,-1,-1],"loss_changes":[3.8619005E-6,0E0,0E0],"parents":[2147483647,0,0],"right_children":[2,-1,-1],"split_conditions":[3.0689435E0,-3.2657072E-6,4.2464735E-4],"split_indices":[4,0,0],"split_type":[0,0,0],"sum_hessian":[3.8E1,3.7E1,1E0],"tree_param":{"num_deleted":"0","num_feature":"6","num_nodes":"3","size_leaf_vector":"1"}},{"base_weights":[5.419896E-5,-6.859206E-6,2.9597283E-4],"categories":[],"categories_nodes":[],"categories_segments":[],"categories_sizes":[],"default_left":[0,0,0],"id":44,"left_children":[1,-1,-1],"loss_changes":[2.8247757E-6,0E0,0E0],"parents":[2147483647,0,0],"right_children":[2,-1,-1],"split_conditions":[2.3486974E0,-6.859206E-6,2.9597283E-4],"split_indices":[4,0,0],"split_type":[0,0,0],"sum_hessian":[3.8E1,3.6E1,2E0],"tree_param":{"num_deleted":"0","num_feature":"6","num_nodes":"3","size_leaf_vector":"1"}},{"base_weights":[4.5388173E-5,-2.6831501E-6,3.1650066E-4],"categories":[],"categories_nodes":[],"categories_segments":[],"categories_sizes":[],"default_left":[0,0,0],"id":45,"left_children":[1,-1,-1],"loss_changes":[2.1487556E-6,0E0,0E0],"parents":[2147483647,0,0],"right_children":[2,-1,-1],"split_conditions":[3.0689435E0,-2.6831501E-6,3.1650066E-4],"split_indices":[4,0,0],"split_type":[0,0,0],"sum_hessian":[3.8E1,3.7E1,1E0],"tree_param":{"num_deleted":"0","num_feature":"6","num_nodes":"3","size_leaf_vector":"1"}},{"base_weights":[3.9826602E-5,-1.8958983E-6,2.690077E-4],"categories":[],"categories_nodes":[],"categories_segments":[],"categories_sizes":[],"default_left":[0,0,0],"id":46,"left_children":[1,-1,-1],"loss_changes":[1.5477715E-6,0E0,0E0],"parents":[2147483647,0,0],"right_children":[2,-1,-1],"split_conditions":[3.0689435E0,-1.8958983E-6,2.690077E-4],"split_indices":[4,0,0],"split_type":[0,0,0],"sum_hessian":[3.8E1,3.7E1,1E0],"tree_param":{"num_deleted":"0","num_feature":"6","num_nodes":"3","size_leaf_vector":"1"}},{"base_weights":[3.4740337E-5,-1.36142435E-5,4.074914E-4,3.2401085E-4,1.1539459E-4,-2.0542146E-4,1.2371063E-4],"categories":[],"categories_nodes":[],"categories_segments":[],"categories_sizes":[],"default_left":[0,0,0,0,0,0,0],"id":47,"left_children":[1,-1,3,-1,5,-1,-1],"loss_changes":[1.1832368E-6,0E0,1.2505069E-6,0E0,1.7080772E-6,0E0,0E0],"parents":[2147483647,0,0,2,2,4,4],"right_children":[2,-1,4,-1,6,-1,-1],"split_conditions":[9.682256E-1,-1.36142435E-5,1.1500672E0,3.2401085E-4,1.5684308E0,-2.0542146E-4,1.2371063E-4],"split_indices":[4,0,0,0,4,0,0],"split_type":[0,0,0,0,0,0,0],"sum_hessian":[3.8E1,3.2E1,6E0,1E0,5E0,1E0,4E0],"tree_param":{"num_deleted":"0","num_feature":"6","num_nodes":"7","size_leaf_vector":"1"}},{"base_weights":[3.0179819E-5],"categories":[],"categories_nodes":[],"categories_segments":[],"categories_sizes":[],"default_left":[0],"id":48,"left_children":[-1],"loss_changes":[0E0],"parents":[2147483647],"right_children":[-1],"split_conditions":[9.053946E-6],"split_indices":[0],"split_type":[0],"sum_hessian":[3.8E1],"tree_param":{"num_deleted":"0","num_feature":"6","num_nodes":"1","size_leaf_vector":"1"}},{"base_weights":[2.1352218E-5],"categories":[],"categories_nodes":[],"categories_segments":[],"categories_sizes":[],"default_left":[0],"id":49,"left_children":[-1],"loss_changes":[0E0],"parents":[2147483647],"right_children":[-1],"split_conditions":[6.4056658E-6],"split_indices":[0],"split_type":[0],"sum_hessian":[3.8E1],"tree_param":{"num_deleted":"0","num_feature":"6","num_nodes":"1","size_leaf_vector":"1"}},{"base_weights":[1.5099843E-5],"categories":[],"categories_nodes":[],"categories_segments":[],"categories_sizes":[],"default_left":[0],"id":50,"left_children":[-1],"loss_changes":[0E0],"parents":[2147483647],"right_children":[-1],"split_conditions":[4.529953E-6],"split_indices":[0],"split_type":[0],"sum_hessian":[3.8E1],"tree_param":{"num_deleted":"0","num_feature":"6","num_nodes":"1","size_leaf_vector":"1"}},{"base_weights":[1.06677035E-5],"categories":[],"categories_nodes":[],"categories_segments":[],"categories_sizes":[],"default_left":[0],"id":51,"left_children":[-1],"loss_changes":[0E0],"parents":[2147483647],"right_children":[-1],"split_conditions":[3.200311E-6],"split_indices":[0],"split_type":[0],"sum_hessian":[3.8E1],"tree_param":{"num_deleted":"0","num_feature":"6","num_nodes":"1","size_leaf_vector":"1"}},{"base_weights":[7.5713183E-6],"categories":[],"categories_nodes":[],"categories_segments":[],"categories_sizes":[],"default_left":[0],"id":52,"left_children":[-1],"loss_changes":[0E0],"parents":[2147483647],"right_children":[-1],"split_conditions":[2.2713955E-6],"split_indices":[0],"split_type":[0],"sum_hessian":[3.8E1],"tree_param":{"num_deleted":"0","num_feature":"6","num_nodes":"1","size_leaf_vector":"1"}},{"base_weights":[5.306342E-6],"categories":[],"categories_nodes":[],"categories_segments":[],"categories_sizes":[],"default_left":[0],"id":53,"left_children":[-1],"loss_changes":[0E0],"parents":[2147483647],"right_children":[-1],"split_conditions":[1.5919026E-6],"split_indices":[0],"split_type":[0],"sum_hessian":[3.8E1],"tree_param":{"num_deleted":"0","num_feature":"6","num_nodes":"1","size_leaf_vector":"1"}},{"base_weights":[3.7550926E-6],"categories":[],"categories_nodes":[],"categories_segments":[],"categories_sizes":[],"default_left":[0],"id":54,"left_children":[-1],"loss_changes":[0E0],"parents":[2147483647],"right_children":[-1],"split_conditions":[1.1265279E-6],"split_indices":[0],"split_type":[0],"sum_hessian":[3.8E1],"tree_param":{"num_deleted":"0","num_feature":"6","num_nodes":"1","size_leaf_vector":"1"}},{"base_weights":[2.668454E-6],"categories":[],"categories_nodes":[],"categories_segments":[],"categories_sizes":[],"default_left":[0],"id":55,"left_children":[-1],"loss_changes":[0E0],"parents":[2147483647],"right_children":[-1],"split_conditions":[8.0053627E-7],"split_indices":[0],"split_type":[0],"sum_hessian":[3.8E1],"tree_param":{"num_deleted":"0","num_feature":"6","num_nodes":"1","size_leaf_vector":"1"}},{"base_weights":[1.8966504E-6],"categories":[],"categories_nodes":[],"categories_segments":[],"categories_sizes":[],"default_left":[0],"id":56,"left_children":[-1],"loss_changes":[0E0],"parents":[2147483647],"right_children":[-1],"split_conditions":[5.689951E-7],"split_indices":[0],"split_type":[0],"sum_hessian":[3.8E1],"tree_param":{"num_deleted":"0","num_feature":"6","num_nodes":"1","size_leaf_vector":"1"}},{"base_weights":[1.3739635E-6],"categories":[],"categories_nodes":[],"categories_segments":[],"categories_sizes":[],"default_left":[0],"id":57,"left_children":[-1],"loss_changes":[0E0],"parents":[2147483647],"right_children":[-1],"split_conditions":[4.1218908E-7],"split_indices":[0],"split_type":[0],"sum_hessian":[3.8E1],"tree_param":{"num_deleted":"0","num_feature":"6","num_nodes":"1","size_leaf_vector":"1"}},{"base_weights":[9.659009E-7],"categories":[],"categories_nodes":[],"categories_segments":[],"categories_sizes":[],"default_left":[0],"id":58,"left_children":[-1],"loss_changes":[0E0],"parents":[2147483647],"right_children":[-1],"split_conditions":[2.8977027E-7],"split_indices":[0],"split_type":[0],"sum_hessian":[3.8E1],"tree_param":{"num_deleted":"0","num_feature":"6","num_nodes":"1","size_leaf_vector":"1"}},{"base_weights":[7.137274E-7],"categories":[],"categories_nodes":[],"categories_segments":[],"categories_sizes":[],"default_left":[0],"id":59,"left_children":[-1],"loss_changes":[0E0],"parents":[2147483647],"right_children":[-1],"split_conditions":[2.1411823E-7],"split_indices":[0],"split_type":[0],"sum_hessian":[3.8E1],"tree_param":{"num_deleted":"0","num_feature":"6","num_nodes":"1","size_leaf_vector":"1"}},{"base_weights":[4.99762E-7],"categories":[],"categories_nodes":[],"categories_segments":[],"categories_sizes":[],"default_left":[0],"id":60,"left_children":[-1],"loss_changes":[0E0],"parents":[2147483647],"right_children":[-1],"split_conditions":[1.4992861E-7],"split_indices":[0],"split_type":[0],"sum_hessian":[3.8E1],"tree_param":{"num_deleted":"0","num_feature":"6","num_nodes":"1","size_leaf_vector":"1"}},{"base_weights":[3.4234463E-7],"categories":[],"categories_nodes":[],"categories_segments":[],"categories_sizes":[],"default_left":[0],"id":61,"left_children":[-1],"loss_changes":[0E0],"parents":[2147483647],"right_children":[-1],"split_conditions":[1.02703396E-7],"split_indices":[0],"split_type":[0],"sum_hessian":[3.8E1],"tree_param":{"num_deleted":"0","num_feature":"6","num_nodes":"1","size_leaf_vector":"1"}},{"base_weights":[2.842683E-7],"categories":[],"categories_nodes":[],"categories_segments":[],"categories_sizes":[],"default_left":[0],"id":62,"left_children":[-1],"loss_changes":[0E0],"parents":[2147483647],"right_children":[-1],"split_conditions":[8.52805E-8],"split_indices":[0],"split_type":[0],"sum_hessian":[3.8E1],"tree_param":{"num_deleted":"0","num_feature":"6","num_nodes":"1","size_leaf_vector":"1"}},{"base_weights":[2.277203E-7],"categories":[],"categories_nodes":[],"categories_segments":[],"categories_sizes":[],"default_left":[0],"id":63,"left_children":[-1],"loss_changes":[0E0],"parents":[2147483647],"right_children":[-1],"split_conditions":[6.83161E-8],"split_indices":[0],"split_type":[0],"sum_hessian":[3.8E1],"tree_param":{"num_deleted":"0","num_feature":"6","num_nodes":"1","size_leaf_vector":"1"}},{"base_weights":[1.7117232E-7],"categories":[],"categories_nodes":[],"categories_segments":[],"categories_sizes":[],"default_left":[0],"id":64,"left_children":[-1],"loss_changes":[0E0],"parents":[2147483647],"right_children":[-1],"split_conditions":[5.1351698E-8],"split_indices":[0],"split_type":[0],"sum_hessian":[3.8E1],"tree_param":{"num_deleted":"0","num_feature":"6","num_nodes":"1","size_leaf_vector":"1"}},{"base_weights":[1.6964398E-7],"categories":[],"categories_nodes":[],"categories_segments":[],"categories_sizes":[],"default_left":[0],"id":65,"left_children":[-1],"loss_changes":[0E0],"parents":[2147483647],"right_children":[-1],"split_conditions":[5.0893195E-8],"split_indices":[0],"split_type":[0],"sum_hessian":[3.8E1],"tree_param":{"num_deleted":"0","num_feature":"6","num_nodes":"1","size_leaf_vector":"1"}},{"base_weights":[1.6811566E-7],"categories":[],"categories_nodes":[],"categories_segments":[],"categories_sizes":[],"default_left":[0],"id":66,"left_children":[-1],"loss_changes":[0E0],"parents":[2147483647],"right_children":[-1],"split_conditions":[5.04347E-8],"split_indices":[0],"split_type":[0],"sum_hessian":[3.8E1],"tree_param":{"num_deleted":"0","num_feature":"6","num_nodes":"1","size_leaf_vector":"1"}},{"base_weights":[1.6658734E-7],"categories":[],"categories_nodes":[],"categories_segments":[],"categories_sizes":[],"default_left":[0],"id":67,"left_children":[-1],"loss_changes":[0E0],"parents":[2147483647],"right_children":[-1],"split_conditions":[4.9976205E-8],"split_indices":[0],"split_type":[0],"sum_hessian":[3.8E1],"tree_param":{"num_deleted":"0","num_feature":"6","num_nodes":"1","size_leaf_vector":"1"}},{"base_weights":[1.6505902E-7],"categories":[],"categories_nodes":[],"categories_segments":[],"categories_sizes":[],"default_left":[0],"id":68,"left_children":[-1],"loss_changes":[0E0],"parents":[2147483647],"right_children":[-1],"split_conditions":[4.951771E-8],"split_indices":[0],"split_type":[0],"sum_hessian":[3.8E1],"tree_param":{"num_deleted":"0","num_feature":"6","num_nodes":"1","size_leaf_vector":"1"}},{"base_weights":[1.6353069E-7],"categories":[],"categories_nodes":[],"categories_segments":[],"categories_sizes":[],"default_left":[0],"id":69,"left_children":[-1],"loss_changes":[0E0],"parents":[2147483647],"right_children":[-1],"split_conditions":[4.9059206E-8],"split_indices":[0],"split_type":[0],"sum_hessian":[3.8E1],"tree_param":{"num_deleted":"0","num_feature":"6","num_nodes":"1","size_leaf_vector":"1"}},{"base_weights":[1.6200237E-7],"categories":[],"categories_nodes":[],"categories_segments":[],"categories_sizes":[],"default_left":[0],"id":70,"left_children":[-1],"loss_changes":[0E0],"parents":[2147483647],"right_children":[-1],"split_conditions":[4.860071E-8],"split_indices":[0],"split_type":[0],"sum_hessian":[3.8E1],"tree_param":{"num_deleted":"0","num_feature":"6","num_nodes":"1","size_leaf_vector":"1"}},{"base_weights":[1.6047404E-7],"categories":[],"categories_nodes":[],"categories_segments":[],"categories_sizes":[],"default_left":[0],"id":71,"left_children":[-1],"loss_changes":[0E0],"parents":[2147483647],"right_children":[-1],"split_conditions":[4.8142216E-8],"split_indices":[0],"split_type":[0],"sum_hessian":[3.8E1],"tree_param":{"num_deleted":"0","num_feature":"6","num_nodes":"1","size_leaf_vector":"1"}},{"base_weights":[1.5894572E-7],"categories":[],"categories_nodes":[],"categories_segments":[],"categories_sizes":[],"default_left":[0],"id":72,"left_children":[-1],"loss_changes":[0E0],"parents":[2147483647],"right_children":[-1],"split_conditions":[4.768372E-8],"split_indices":[0],"split_type":[0],"sum_hessian":[3.8E1],"tree_param":{"num_deleted":"0","num_feature":"6","num_nodes":"1","size_leaf_vector":"1"}},{"base_weights":[1.5741739E-7],"categories":[],"categories_nodes":[],"categories_segments":[],"categories_sizes":[],"default_left":[0],"id":73,"left_children":[-1],"loss_changes":[0E0],"parents":[2147483647],"right_children":[-1],"split_conditions":[4.7225218E-8],"split_indices":[0],"split_type":[0],"sum_hessian":[3.8E1],"tree_param":{"num_deleted":"0","num_feature":"6","num_nodes":"1","size_leaf_vector":"1"}},{"base_weights":[1.5588907E-7],"categories":[],"categories_nodes":[],"categories_segments":[],"categories_sizes":[],"default_left":[0],"id":74,"left_children":[-1],"loss_changes":[0E0],"parents":[2147483647],"right_children":[-1],"split_conditions":[4.6766722E-8],"split_indices":[0],"split_type":[0],"sum_hessian":[3.8E1],"tree_param":{"num_deleted":"0","num_feature":"6","num_nodes":"1","size_leaf_vector":"1"}},{"base_weights":[1.5436075E-7],"categories":[],"categories_nodes":[],"categories_segments":[],"categories_sizes":[],"default_left":[0],"id":75,"left_children":[-1],"loss_changes":[0E0],"parents":[2147483647],"right_children":[-1],"split_conditions":[4.6308227E-8],"split_indices":[0],"split_type":[0],"sum_hessian":[3.8E1],"tree_param":{"num_deleted":"0","num_feature":"6","num_nodes":"1","size_leaf_vector":"1"}},{"base_weights":[1.5283243E-7],"categories":[],"categories_nodes":[],"categories_segments":[],"categories_sizes":[],"default_left":[0],"id":76,"left_children":[-1],"loss_changes":[0E0],"parents":[2147483647],"right_children":[-1],"split_conditions":[4.584973E-8],"split_indices":[0],"split_type":[0],"sum_hessian":[3.8E1],"tree_param":{"num_deleted":"0","num_feature":"6","num_nodes":"1","size_leaf_vector":"1"}},{"base_weights":[1.5130409E-7],"categories":[],"categories_nodes":[],"categories_segments":[],"categories_sizes":[],"default_left":[0],"id":77,"left_children":[-1],"loss_changes":[0E0],"parents":[2147483647],"right_children":[-1],"split_conditions":[4.539123E-8],"split_indices":[0],"split_type":[0],"sum_hessian":[3.8E1],"tree_param":{"num_deleted":"0","num_feature":"6","num_nodes":"1","size_leaf_vector":"1"}},{"base_weights":[1.4977577E-7],"categories":[],"categories_nodes":[],"categories_segments":[],"categories_sizes":[],"default_left":[0],"id":78,"left_children":[-1],"loss_changes":[0E0],"parents":[2147483647],"right_children":[-1],"split_conditions":[4.4932733E-8],"split_indices":[0],"split_type":[0],"sum_hessian":[3.8E1],"tree_param":{"num_deleted":"0","num_feature":"6","num_nodes":"1","size_leaf_vector":"1"}},{"base_weights":[1.4824745E-7],"categories":[],"categories_nodes":[],"categories_segments":[],"categories_sizes":[],"default_left":[0],"id":79,"left_children":[-1],"loss_changes":[0E0],"parents":[2147483647],"right_children":[-1],"split_conditions":[4.4474238E-8],"split_indices":[0],"split_type":[0],"sum_hessian":[3.8E1],"tree_param":{"num_deleted":"0","num_feature":"6","num_nodes":"1","size_leaf_vector":"1"}},{"base_weights":[1.4671913E-7],"categories":[],"categories_nodes":[],"categories_segments":[],"categories_sizes":[],"default_left":[0],"id":80,"left_children":[-1],"loss_changes":[0E0],"parents":[2147483647],"right_children":[-1],"split_conditions":[4.4015742E-8],"split_indices":[0],"split_type":[0],"sum_hessian":[3.8E1],"tree_param":{"num_deleted":"0","num_feature":"6","num_nodes":"1","size_leaf_vector":"1"}},{"base_weights":[1.451908E-7],"categories":[],"categories_nodes":[],"categories_segments":[],"categories_sizes":[],"default_left":[0],"id":81,"left_children":[-1],"loss_changes":[0E0],"parents":[2147483647],"right_children":[-1],"split_conditions":[4.355724E-8],"split_indices":[0],"split_type":[0],"sum_hessian":[3.8E1],"tree_param":{"num_deleted":"0","num_feature":"6","num_nodes":"1","size_leaf_vector":"1"}},{"base_weights":[1.4366248E-7],"categories":[],"categories_nodes":[],"categories_segments":[],"categories_sizes":[],"default_left":[0],"id":82,"left_children":[-1],"loss_changes":[0E0],"parents":[2147483647],"right_children":[-1],"split_conditions":[4.3098744E-8],"split_indices":[0],"split_type":[0],"sum_hessian":[3.8E1],"tree_param":{"num_deleted":"0","num_feature":"6","num_nodes":"1","size_leaf_vector":"1"}},{"base_weights":[1.4213416E-7],"categories":[],"categories_nodes":[],"categories_segments":[],"categories_sizes":[],"default_left":[0],"id":83,"left_children":[-1],"loss_changes":[0E0],"parents":[2147483647],"right_children":[-1],"split_conditions":[4.264025E-8],"split_indices":[0],"split_type":[0],"sum_hessian":[3.8E1],"tree_param":{"num_deleted":"0","num_feature":"6","num_nodes":"1","size_leaf_vector":"1"}},{"base_weights":[1.4060583E-7],"categories":[],"categories_nodes":[],"categories_segments":[],"categories_sizes":[],"default_left":[0],"id":84,"left_children":[-1],"loss_changes":[0E0],"parents":[2147483647],"right_children":[-1],"split_conditions":[4.2181753E-8],"split_indices":[0],"split_type":[0],"sum_hessian":[3.8E1],"tree_param":{"num_deleted":"0","num_feature":"6","num_nodes":"1","size_leaf_vector":"1"}},{"base_weights":[1.390775E-7],"categories":[],"categories_nodes":[],"categories_segments":[],"categories_sizes":[],"default_left":[0],"id":85,"left_children":[-1],"loss_changes":[0E0],"parents":[2147483647],"right_children":[-1],"split_conditions":[4.172325E-8],"split_indices":[0],"split_type":[0],"sum_hessian":[3.8E1],"tree_param":{"num_deleted":"0","num_feature":"6","num_nodes":"1","size_leaf_vector":"1"}},{"base_weights":[1.3754918E-7],"categories":[],"categories_nodes":[],"categories_segments":[],"categories_sizes":[],"default_left":[0],"id":86,"left_children":[-1],"loss_changes":[0E0],"parents":[2147483647],"right_children":[-1],"split_conditions":[4.1264755E-8],"split_indices":[0],"split_type":[0],"sum_hessian":[3.8E1],"tree_param":{"num_deleted":"0","num_feature":"6","num_nodes":"1","size_leaf_vector":"1"}},{"base_weights":[1.3602086E-7],"categories":[],"categories_nodes":[],"categories_segments":[],"categories_sizes":[],"default_left":[0],"id":87,"left_children":[-1],"loss_changes":[0E0],"parents":[2147483647],"right_children":[-1],"split_conditions":[4.080626E-8],"split_indices":[0],"split_type":[0],"sum_hessian":[3.8E1],"tree_param":{"num_deleted":"0","num_feature":"6","num_nodes":"1","size_leaf_vector":"1"}},{"base_weights":[1.3449254E-7],"categories":[],"categories_nodes":[],"categories_segments":[],"categories_sizes":[],"default_left":[0],"id":88,"left_children":[-1],"loss_changes":[0E0],"parents":[2147483647],"right_children":[-1],"split_conditions":[4.0347764E-8],"split_indices":[0],"split_type":[0],"sum_hessian":[3.8E1],"tree_param":{"num_deleted":"0","num_feature":"6","num_nodes":"1","size_leaf_vector":"1"}},{"base_weights":[1.329642E-7],"categories":[],"categories_nodes":[],"categories_segments":[],"categories_sizes":[],"default_left":[0],"id":89,"left_children":[-1],"loss_changes":[0E0],"parents":[2147483647],"right_children":[-1],"split_conditions":[3.988926E-8],"split_indices":[0],"split_type":[0],"sum_hessian":[3.8E1],"tree_param":{"num_deleted":"0","num_feature":"6","num_nodes":"1","size_leaf_vector":"1"}},{"base_weights":[1.3143588E-7],"categories":[],"categories_nodes":[],"categories_segments":[],"categories_sizes":[],"default_left":[0],"id":90,"left_children":[-1],"loss_changes":[0E0],"parents":[2147483647],"right_children":[-1],"split_conditions":[3.9430766E-8],"split_indices":[0],"split_type":[0],"sum_hessian":[3.8E1],"tree_param":{"num_deleted":"0","num_feature":"6","num_nodes":"1","size_leaf_vector":"1"}},{"base_weights":[1.2990756E-7],"categories":[],"categories_nodes":[],"categories_segments":[],"categories_sizes":[],"default_left":[0],"id":91,"left_children":[-1],"loss_changes":[0E0],"parents":[2147483647],"right_children":[-1],"split_conditions":[3.897227E-8],"split_indices":[0],"split_type":[0],"sum_hessian":[3.8E1],"tree_param":{"num_deleted":"0","num_feature":"6","num_nodes":"1","size_leaf_vector":"1"}},{"base_weights":[1.2837924E-7],"categories":[],"categories_nodes":[],"categories_segments":[],"categories_sizes":[],"default_left":[0],"id":92,"left_children":[-1],"loss_changes":[0E0],"parents":[2147483647],"right_children":[-1],"split_conditions":[3.8513775E-8],"split_indices":[0],"split_type":[0],"sum_hessian":[3.8E1],"tree_param":{"num_deleted":"0","num_feature":"6","num_nodes":"1","size_leaf_vector":"1"}},{"base_weights":[1.268509E-7],"categories":[],"categories_nodes":[],"categories_segments":[],"categories_sizes":[],"default_left":[0],"id":93,"left_children":[-1],"loss_changes":[0E0],"parents":[2147483647],"right_children":[-1],"split_conditions":[3.8055273E-8],"split_indices":[0],"split_type":[0],"sum_hessian":[3.8E1],"tree_param":{"num_deleted":"0","num_feature":"6","num_nodes":"1","size_leaf_vector":"1"}},{"base_weights":[1.2532259E-7],"categories":[],"categories_nodes":[],"categories_segments":[],"categories_sizes":[],"default_left":[0],"id":94,"left_children":[-1],"loss_changes":[0E0],"parents":[2147483647],"right_children":[-1],"split_conditions":[3.7596777E-8],"split_indices":[0],"split_type":[0],"sum_hessian":[3.8E1],"tree_param":{"num_deleted":"0","num_feature":"6","num_nodes":"1","size_leaf_vector":"1"}},{"base_weights":[1.2379427E-7],"categories":[],"categories_nodes":[],"categories_segments":[],"categories_sizes":[],"default_left":[0],"id":95,"left_children":[-1],"loss_changes":[0E0],"parents":[2147483647],"right_children":[-1],"split_conditions":[3.7138282E-8],"split_indices":[0],"split_type":[0],"sum_hessian":[3.8E1],"tree_param":{"num_deleted":"0","num_feature":"6","num_nodes":"1","size_leaf_vector":"1"}},{"base_weights":[1.2226594E-7],"categories":[],"categories_nodes":[],"categories_segments":[],"categories_sizes":[],"default_left":[0],"id":96,"left_children":[-1],"loss_changes":[0E0],"parents":[2147483647],"right_children":[-1],"split_conditions":[3.6679786E-8],"split_indices":[0],"split_type":[0],"sum_hessian":[3.8E1],"tree_param":{"num_deleted":"0","num_feature":"6","num_nodes":"1","size_leaf_vector":"1"}},{"base_weights":[1.2073761E-7],"categories":[],"categories_nodes":[],"categories_segments":[],"categories_sizes":[],"default_left":[0],"id":97,"left_children":[-1],"loss_changes":[0E0],"parents":[2147483647],"right_children":[-1],"split_conditions":[3.6221284E-8],"split_indices":[0],"split_type":[0],"sum_hessian":[3.8E1],"tree_param":{"num_deleted":"0","num_feature":"6","num_nodes":"1","size_leaf_vector":"1"}},{"base_weights":[1.1920929E-7],"categories":[],"categories_nodes":[],"categories_segments":[],"categories_sizes":[],"default_left":[0],"id":98,"left_children":[-1],"loss_changes":[0E0],"parents":[2147483647],"right_children":[-1],"split_conditions":[3.576279E-8],"split_indices":[0],"split_type":[0],"sum_hessian":[3.8E1],"tree_param":{"num_deleted":"0","num_feature":"6","num_nodes":"1","size_leaf_vector":"1"}},{"base_weights":[1.1768096E-7],"categories":[],"categories_nodes":[],"categories_segments":[],"categories_sizes":[],"default_left":[0],"id":99,"left_children":[-1],"loss_changes":[0E0],"parents":[2147483647],"right_children":[-1],"split_conditions":[3.530429E-8],"split_indices":[0],"split_type":[0],"sum_hessian":[3.8E1],"tree_param":{"num_deleted":"0","num_feature":"6","num_nodes":"1","size_leaf_vector":"1"}}]},"name":"gbtree"},"learner_model_param":{"base_score":"2.1685264E0","boost_from_average":"1","num_class":"0","num_feature":"6","num_target":"1"},"objective":{"name":"reg:squarederror","reg_loss_param":{"scale_pos_weight":"1"}}},"version":[2,1,3]}